<?xml version="1.0"?>
<MethodSetup Method="DL::DNN_CPU">
  <GeneralInfo>
    <Info name="TMVA Release" value="4.2.1 [262657]"/>
    <Info name="ROOT Release" value="6.26/10 [399882]"/>
    <Info name="Creator" value="root"/>
    <Info name="Date" value="Thu Sep 14 03:42:19 2023"/>
    <Info name="Host" value="Linux root-ubuntu-2204-1 5.15.0-50-generic #56-Ubuntu SMP Tue Sep 20 13:23:26 UTC 2022 x86_64 x86_64 x86_64 GNU/Linux"/>
    <Info name="Dir" value="/gate"/>
    <Info name="Training events" value="230515"/>
    <Info name="TrainingTime" value="1.07354421e+03"/>
    <Info name="AnalysisType" value="Classification"/>
  </GeneralInfo>
  <Options>
    <Option name="V" modified="Yes">True</Option>
    <Option name="VerbosityLevel" modified="No">Verbose</Option>
    <Option name="VarTransform" modified="Yes">N</Option>
    <Option name="H" modified="Yes">False</Option>
    <Option name="CreateMVAPdfs" modified="No">False</Option>
    <Option name="IgnoreNegWeightsInTraining" modified="No">False</Option>
    <Option name="InputLayout" modified="No">0|0|0</Option>
    <Option name="BatchLayout" modified="No">0|0|0</Option>
    <Option name="Layout" modified="Yes">TANH|128,TANH|128,TANH|128,LINEAR</Option>
    <Option name="ErrorStrategy" modified="Yes">CROSSENTROPY</Option>
    <Option name="WeightInitialization" modified="Yes">XAVIER</Option>
    <Option name="RandomSeed" modified="No">0</Option>
    <Option name="ValidationSize" modified="No">20%</Option>
    <Option name="Architecture" modified="Yes">CPU</Option>
    <Option name="TrainingStrategy" modified="Yes">LearningRate=1e-2,ConvergenceSteps=30,BatchSize=256,TestRepetitions=1,WeightDecay=1e-4,Regularization=None</Option>
  </Options>
  <Variables NVar="6">
    <Variable VarIndex="0" Expression="j_Deep" Label="j_Deep" Title="DeepCSV" Unit="units" Internal="j_Deep" Type="F" Min="4.23049927e-03" Max="9.99511719e-01"/>
    <Variable VarIndex="1" Expression="DR_lj" Label="DR_lj" Title="DeltaR(l-jet)" Unit="units" Internal="DR_lj" Type="F" Min="4.00578737e-01" Max="5.64025021e+00"/>
    <Variable VarIndex="2" Expression="Deta_lj" Label="Deta_lj" Title="DeltaEta(l-jet)" Unit="units" Internal="Deta_lj" Type="F" Min="-4.73388672e+00" Max="4.73339844e+00"/>
    <Variable VarIndex="3" Expression="DpT_metj" Label="DpT_metj" Title="DeltapT(MET-jet)" Unit="units" Internal="DpT_metj" Type="F" Min="-6.33894592e+02" Max="1.34512231e+03"/>
    <Variable VarIndex="4" Expression="DPhi_lj" Label="DPhi_lj" Title="DeltaPhi(l-jet)" Unit="units" Internal="DPhi_lj" Type="F" Min="-3.14158368e+00" Max="3.14158368e+00"/>
    <Variable VarIndex="5" Expression="DPhi_metj" Label="DPhi_metj" Title="DeltaPhi(MET-jet)" Unit="units" Internal="DPhi_metj" Type="F" Min="-3.14158845e+00" Max="3.14156818e+00"/>
  </Variables>
  <Spectators NSpec="2">
    <Spectator SpecIndex="0" Expression="region" Label="region" Title="region" Unit="units" Internal="region" Type="F" Min="6.00000000e+00" Max="9.00000000e+00"/>
    <Spectator SpecIndex="1" Expression="M_lj" Label="M_lj" Title="M(l-jet)" Unit="units" Internal="M_lj" Type="F" Min="-1.84721313e+02" Max="2.43277856e+03"/>
  </Spectators>
  <Classes NClass="2">
    <Class Name="Signal" Index="0"/>
    <Class Name="Background" Index="1"/>
  </Classes>
  <Transformations NTransformations="1">
    <Transform Name="Normalize">
      <Selection>
        <Input NInputs="6">
          <Input Type="Variable" Label="j_Deep" Expression="j_Deep"/>
          <Input Type="Variable" Label="DR_lj" Expression="DR_lj"/>
          <Input Type="Variable" Label="Deta_lj" Expression="Deta_lj"/>
          <Input Type="Variable" Label="DpT_metj" Expression="DpT_metj"/>
          <Input Type="Variable" Label="DPhi_lj" Expression="DPhi_lj"/>
          <Input Type="Variable" Label="DPhi_metj" Expression="DPhi_metj"/>
        </Input>
        <Output NOutputs="6">
          <Output Type="Variable" Label="j_Deep" Expression="j_Deep"/>
          <Output Type="Variable" Label="DR_lj" Expression="DR_lj"/>
          <Output Type="Variable" Label="Deta_lj" Expression="Deta_lj"/>
          <Output Type="Variable" Label="DpT_metj" Expression="DpT_metj"/>
          <Output Type="Variable" Label="DPhi_lj" Expression="DPhi_lj"/>
          <Output Type="Variable" Label="DPhi_metj" Expression="DPhi_metj"/>
        </Output>
      </Selection>
      <Class ClassIndex="0">
        <Ranges>
          <Range Index="0" Min="5.7029724121093750e-03" Max="9.9951171875000000e-01"/>
          <Range Index="1" Min="4.0127429366111755e-01" Max="4.1122794151306152e+00"/>
          <Range Index="2" Min="-3.0033187866210938e+00" Max="3.2028808593750000e+00"/>
          <Range Index="3" Min="-6.3389459228515625e+02" Max="5.6528466796875000e+02"/>
          <Range Index="4" Min="-3.1408691406250000e+00" Max="3.1412174701690674e+00"/>
          <Range Index="5" Min="-3.1415607929229736e+00" Max="3.1415340900421143e+00"/>
        </Ranges>
      </Class>
      <Class ClassIndex="1">
        <Ranges>
          <Range Index="0" Min="4.2304992675781250e-03" Max="9.9951171875000000e-01"/>
          <Range Index="1" Min="4.0057873725891113e-01" Max="5.6402502059936523e+00"/>
          <Range Index="2" Min="-4.7338867187500000e+00" Max="4.7333984375000000e+00"/>
          <Range Index="3" Min="-5.8801959228515625e+02" Max="1.3451223144531250e+03"/>
          <Range Index="4" Min="-3.1415836811065674e+00" Max="3.1415836811065674e+00"/>
          <Range Index="5" Min="-3.1415884494781494e+00" Max="3.1415681838989258e+00"/>
        </Ranges>
      </Class>
      <Class ClassIndex="2">
        <Ranges>
          <Range Index="0" Min="4.2304992675781250e-03" Max="9.9951171875000000e-01"/>
          <Range Index="1" Min="4.0057873725891113e-01" Max="5.6402502059936523e+00"/>
          <Range Index="2" Min="-4.7338867187500000e+00" Max="4.7333984375000000e+00"/>
          <Range Index="3" Min="-6.3389459228515625e+02" Max="1.3451223144531250e+03"/>
          <Range Index="4" Min="-3.1415836811065674e+00" Max="3.1415836811065674e+00"/>
          <Range Index="5" Min="-3.1415884494781494e+00" Max="3.1415681838989258e+00"/>
        </Ranges>
      </Class>
    </Transform>
  </Transformations>
  <MVAPdfs/>
  <Weights NetDepth="4" InputDepth="1" InputHeight="1" InputWidth="6" BatchSize="1" BatchDepth="1" BatchHeight="256" BatchWidth="6" LossFunction="C" Initialization="X" Regularization="0" OutputFunction="S" WeightDecay="9.9999997473787516e-05">
    <DenseLayer Width="128" ActivationFunction="3">
      <Weights Rows="128" Columns="6">
        -1.129280e+00  -1.542272e-01  7.024585e-01  3.889013e+00  -1.793795e-01  -1.470100e+00  1.366232e+00  -1.278285e+00  -1.981862e+00  -6.460009e-01  -3.421930e-01  -1.265378e+00  -5.921421e-01  1.091909e+00  9.554586e-02  4.557648e+00  3.838858e-02  -2.580076e-01  -2.192724e-01  7.083766e-01  1.862926e+00  -5.842520e+00  1.802134e-01  3.902095e-01  -2.719487e-01  1.384315e+00  5.690748e+00  1.717001e+00  3.649282e-01  9.374150e-01  -3.079750e+00  -3.957722e-01  -7.691153e-01  3.781843e-01  3.751395e-02  -2.026967e-01  -2.876429e-01  7.523290e-02  -2.362197e+00  5.173460e+00  -2.364647e-01  -1.762241e-01  -2.256156e-01  6.226682e-02  2.695212e+00  5.663127e+00  -7.759147e-02  1.262407e-01  -8.994829e-01  9.562183e-01  4.350218e+00  3.467680e+00  2.519409e-01  -4.109933e-02  -4.478098e-01  3.948935e+00  -1.011412e+00  2.284886e-01  -2.168394e+00  1.549089e+00  -1.092667e+00  8.244337e-01  -1.420586e-01  3.131408e+00  -5.705154e-01  3.201866e+00  -2.710838e+00  8.700603e-01  -1.782824e+00  4.256109e-01  1.631189e-01  -1.782478e-01  -7.751589e-02  7.552896e-01  2.372051e+00  -6.459402e+00  1.081019e-01  3.905593e-01  2.154817e+00  1.573643e-01  3.638159e-01  2.912124e-01  4.699873e-01  5.283364e-01  -7.049424e-01  3.218955e+00  -1.877090e-01  2.513548e-01  -9.731759e-01  -1.336350e-01  1.240178e-01  -3.026560e+00  -3.684491e-01  -1.560692e+00  -5.913066e-01  2.057558e-02  7.958426e-01  -2.182346e+00  -1.513462e+00  -1.400681e+00  -1.021029e+00  -4.096116e-01  6.671689e-01  -9.143944e-01  -9.215108e-01  2.975462e+00  8.032539e-01  -1.037175e-01  -1.992112e+00  -1.253899e-01  -2.595971e+00  1.162946e-01  -7.311301e-01  -8.713754e-02  -2.976336e+00  -1.112971e+00  -1.695489e+00  5.992088e-01  1.347659e-01  -3.773137e-01  -1.493953e+00  1.845658e+00  -3.587080e-01  7.509866e-01  5.270686e-01  7.012757e-01  5.441250e-01  -7.382005e-01  3.811702e+00  1.628454e+00  4.871974e-01  -8.863834e-01  9.357597e-01  2.428583e+00  6.094807e-01  1.226546e+00  2.088403e+00  5.570772e-01  2.420819e-01  -1.221754e-01  2.706471e+00  4.964280e+00  -1.289516e-01  -1.127006e-01  1.673904e-01  -9.267934e-01  -2.891369e-01  -4.592776e+00  -3.565667e-01  3.781479e-02  2.692264e+00  -3.599283e-01  4.053735e-01  -1.000544e+00  -2.837632e-01  7.910178e-01  1.191946e+00  -5.269597e-01  3.702233e-02  -5.747624e-01  -9.789681e-01  2.778380e-01  -3.692564e-03  3.381345e+00  5.897104e-01  2.065042e+00  3.184001e-01  -2.188562e-01  1.021795e+00  -1.364580e+00  1.237949e-01  -2.571315e+00  -6.267722e-02  -4.358196e+00  6.223954e-02  1.177140e+00  -6.379097e+00  3.957027e+00  -6.068372e-02  1.906512e-01  -1.202510e-01  9.040017e-01  -4.744824e+00  3.480826e+00  -4.124711e-01  -2.335771e-01  -2.139462e-01  -2.318864e+00  -8.346205e-01  -2.704529e+00  -8.820440e-01  -4.386277e-01  -3.613988e-01  -3.342988e+00  2.369004e+00  -2.485328e+00  -6.328087e-02  9.729918e-01  7.103533e-02  1.847962e+00  3.776178e+00  3.098258e+00  3.839717e-02  1.043967e-01  -1.849294e+00  1.650242e+00  8.442456e-01  -2.355230e+00  2.864110e+00  1.769740e-03  1.793759e+00  1.261011e+00  2.637811e+00  -1.113260e+00  6.627086e-01  4.664707e-01  2.342613e-01  -2.313451e+00  -3.521673e+00  -1.262507e+00  4.380094e-01  1.011609e-01  1.945120e+00  -4.395357e-01  2.505670e+00  1.783394e+00  4.601445e-01  -4.133535e-01  1.022133e+00  1.766041e-01  9.454971e-01  1.431466e+00  1.108242e+00  2.809839e-01  1.995971e+00  1.234865e+00  1.069006e+00  -1.224173e+00  -7.890499e-02  3.505269e-01  4.308323e-01  3.542241e-02  -7.387516e-01  3.936315e+00  -5.008532e-01  -1.195802e-01  5.731129e-02  -1.838783e-01  1.253565e+00  3.597662e+00  1.521194e+00  3.595566e-01  3.252594e-01  4.039507e+00  -3.901783e+00  2.184668e+00  1.601993e-01  -7.217248e-01  5.195004e-01  4.541163e+00  -1.430875e+00  1.972536e+00  -3.239878e-01  -3.962899e-01  -5.911280e-01  1.268672e+00  7.958968e-01  1.319949e+00  1.915435e-01  -5.949935e-01  1.235728e+00  4.347911e-01  2.915369e+00  -4.081363e+00  -4.869094e-02  5.355336e-01  -2.804753e-01  -2.668407e+00  1.653306e+00  -2.354774e+00  -1.340168e-01  1.011009e+00  -5.331127e-02  1.167307e-01  1.146829e+00  -5.286834e+00  2.074171e-01  3.608500e-01  -1.060634e+00  1.606017e-01  -1.897874e+00  -2.051939e+00  -1.838019e+00  5.485047e-01  1.779840e-01  -7.653344e-01  -2.030893e+00  6.410428e+00  -1.444182e-01  -3.372104e-01  4.673346e-01  -3.997222e+00  2.843615e-01  -3.122568e-01  1.169625e+00  -4.309104e-01  2.406161e-01  -7.510495e-01  2.933089e-03  -5.845148e+00  2.108730e-01  2.363575e-01  3.697415e-03  -3.144877e-01  -2.182379e+00  -5.132726e+00  -3.382206e-01  -3.513196e-02  1.144008e+00  -1.356871e+00  -4.434709e+00  6.735412e-01  8.394195e-01  -5.299200e-01  7.035151e-01  1.456609e+00  -5.129305e+00  4.273430e+00  2.186313e-01  4.130697e-01  -1.721601e-01  1.966627e-01  1.174280e+00  -6.123518e+00  1.792389e-01  4.100763e-02  2.849396e+00  3.487974e-01  -8.602220e-01  -3.205991e-01  1.337283e-01  5.223964e-02  6.401591e-01  -2.857320e-01  -4.780971e-01  3.432605e+00  -1.918531e-01  5.031138e-01  -3.668827e-01  7.362033e-01  1.679936e+00  4.435974e+00  2.112046e-02  1.523861e-01  -3.266678e-01  4.884780e+00  4.729280e-01  -1.525582e-01  9.944819e-01  -1.074802e+00  1.310552e+00  -1.297024e+00  -1.953747e+00  -1.205177e+00  6.520743e-01  -2.548870e+00  1.221782e+00  -2.403492e+00  -1.208416e-01  1.637102e+00  1.538152e+00  3.520844e-01  -1.625537e-01  1.928132e+00  1.922643e+00  1.042997e+00  8.242080e-01  1.148581e-01  -1.813035e-02  1.817337e+00  -3.437825e+00  2.590287e+00  1.226574e-01  -1.924350e+00  -5.205432e-02  3.027933e-01  -2.610537e-01  5.678545e+00  -5.219476e-01  5.588178e-03  1.330564e+00  -8.685403e-01  -7.068295e-01  -1.424753e+00  -3.065001e-02  6.903057e-01  -1.108002e-01  -3.542768e+00  5.591055e-02  -1.436987e+00  4.888101e-02  -3.749351e-01  1.374838e-01  1.572821e+00  -5.552171e+00  2.520586e+00  -3.608763e-01  -5.771446e-01  -1.476752e-01  2.998815e-01  -1.003940e-02  -4.710306e+00  6.055008e-01  -4.801781e-01  -2.811792e-01  2.066745e+00  4.013122e+00  3.219251e+00  -1.767733e-01  -5.964708e-01  -9.384833e-01  2.373048e+00  -6.674185e-01  -1.543232e+00  -1.787023e+00  9.762942e-02  -2.885712e-01  2.084477e-02  2.703113e+00  5.014815e+00  -4.698278e-01  -9.725945e-02  1.465122e+00  -4.978347e-01  -6.135014e-01  -2.338940e+00  7.804832e-01  5.854005e-02  5.229293e-01  1.844310e+00  8.855299e-01  1.823940e+00  1.542532e+00  3.711765e-01  -1.755683e+00  4.595029e-01  -1.524220e+00  -5.421414e-01  2.349775e-01  3.871002e-01  -5.105934e-01  2.157997e+00  3.085092e+00  8.031500e-01  -4.712462e-01  -5.065302e-01  1.157919e+00  -2.469599e+00  -8.908264e-02  8.214059e-02  -7.882544e-01  -1.972067e-01  1.439855e+00  -8.722132e-01  4.614620e-01  -3.593958e+00  1.329017e-01  1.546698e+00  -2.766093e+00  9.864820e-02  3.477865e-01  3.816597e-01  1.122252e-01  -2.944150e-01  1.233681e+00  -9.176503e-01  -8.635616e-01  -6.765645e-02  -5.002279e-01  -2.605738e-01  4.278412e-01  -2.288802e+00  -5.067927e+00  -3.685475e+00  6.324936e-01  -3.917030e-01  2.231248e+00  3.727545e-01  -2.700079e-01  -3.167320e-01  2.408720e-01  3.506807e-01  -6.544142e-01  1.863701e+00  9.312998e-01  2.628842e+00  -1.112209e-01  -5.449846e-01  1.338251e+00  -1.073742e+00  -1.112264e+00  -1.288847e+00  2.014607e-02  4.529069e-01  1.085638e+00  -1.999438e+00  -5.416185e-01  -2.907624e+00  -9.737452e-03  -4.306756e+00  -1.915939e-01  -2.035430e+00  -3.465866e+00  -2.718163e+00  1.079680e+00  -2.528432e-01  -1.812971e+00  7.981608e-01  -9.636348e-01  1.053681e+00  -2.513959e-01  -3.621199e-01  -8.640757e-01  -2.583733e+00  4.075418e+00  -8.385502e-01  -2.254461e-01  3.891525e-01  -1.260661e+00  1.042253e+00  -2.461449e+00  1.572430e+00  8.451136e-01  2.795756e-01  -2.753210e+00  -5.482194e-01  -4.602018e-01  -6.404635e-02  1.397401e-02  -3.245049e-01  -1.927506e-01  8.080586e-01  -2.014266e+00  -4.153186e+00  1.990461e-01  7.508092e-01  4.786004e-01  -2.975393e+00  -3.893868e+00  1.239948e+00  5.653686e-01  -9.303887e-01  -1.876817e+00  8.229818e-01  2.095091e+00  1.562101e+00  3.156864e-01  3.301456e-01  2.593119e-02  -4.301007e-01  2.639582e+00  6.044306e+00  -2.642394e-01  -5.620739e-02  1.422912e+00  -7.911356e-01  8.191609e-01  3.083043e+00  -1.529162e+00  -5.464981e-01  1.152600e+00  -2.506777e+00  -4.977616e-01  1.175006e+00  -1.455935e+00  1.492786e-01  2.740127e-01  3.721960e+00  6.326517e-01  4.052278e-01  1.776503e-01  2.882574e-01  -5.966838e-01  2.723134e+00  -1.134723e+00  -1.732064e-01  3.030908e-01  -1.994371e-01  1.094041e+00  -5.263625e-01  2.740066e+00  2.407460e+00  6.311869e-01  -2.033797e-01  9.978339e-02  -1.740503e+00  -5.647085e+00  -3.857620e+00  -3.833218e-01  1.759110e-01  8.373058e-01  2.332609e-01  6.875002e-01  -1.503452e+00  -4.558637e-01  -1.995743e+00  -2.318736e+00  6.358254e-01  7.974620e-01  6.176370e-01  2.552800e-02  -2.143750e-01  2.332139e+00  6.129519e-01  -2.413181e+00  -5.955886e-01  -1.236903e-01  3.504651e-01  1.230518e+00  1.566693e+00  5.018773e-02  1.562640e+00  4.254375e-01  -4.409895e-01  1.233786e+00  3.753487e-01  2.901612e-01  8.773023e-01  -1.522609e-01  -5.067176e-01  1.019729e-01  -3.387618e+00  -2.774842e-01  -1.756664e+00  -3.113882e-01  -3.781414e-02  -1.834934e+00  3.489544e-01  -3.110093e+00  6.077929e-01  3.888493e-02  1.466236e-01  9.103010e-02  8.034379e-01  -2.348799e+00  -5.070619e+00  3.938934e-01  5.022431e-01  -3.748958e-01  2.363275e+00  -9.256097e-02  3.799203e+00  4.966500e-01  1.547488e-01  7.834944e-01  8.783959e-01  2.029791e+00  -2.423434e+00  1.703456e+00  -8.203597e-01  -1.804730e+00  2.180182e+00  -5.641006e-01  7.975995e-01  5.123179e-01  -3.562211e-01  4.414388e-01  3.849647e+00  1.421442e+00  -3.946326e-01  1.247215e+00  -1.387565e+00  4.691409e-01  -2.425228e+00  -1.887394e+00  -1.010548e+00  -8.276547e-01  -4.006671e-02  3.989160e-01  1.245713e+00  3.557551e+00  -2.421233e+00  -8.751063e-01  5.670018e-01  -6.332249e-02  3.170523e-01  -6.071084e+00  5.020153e+00  -2.279225e-01  1.311936e-01  1.824428e-01  2.388949e+00  -1.453589e+00  7.011524e-01  -1.719840e-02  -4.329031e-01  -2.228301e+00  6.598914e-02  -2.460922e+00  4.806516e-01  -2.004868e+00  -6.864796e-01  3.848034e-01  8.735785e-01  -3.789625e+00  -4.645937e+00  -1.070437e-01  2.503054e-01  -1.603822e-01  4.468898e-01  -2.042344e+00  -4.530540e+00  1.131041e-01  8.126729e-02  2.252710e+00  2.115056e-01  8.385783e-01  -2.414013e-01  2.793823e-01  -2.694902e-01  3.161622e+00  2.137111e-01  1.624566e-01  -6.562085e-01  -2.613658e-01  2.068572e-01  2.881339e-01  -2.384292e+00  3.205660e-01  -2.505870e+00  -6.352461e-01  1.109363e-01  -7.129876e-01  2.415281e+00  -8.541611e-02  -2.391373e+00  -7.819009e-01  -7.761771e-01  -4.270312e-01  -2.702385e+00  3.192206e+00  -4.471737e+00  3.393545e-01  4.993277e-01  -8.767734e-01  1.897611e+00  -3.291436e-01  1.966463e+00  -4.341996e-01  -3.211192e+00  2.788752e-01  -2.022909e-03  -2.649931e+00  5.418132e+00  -3.394302e-01  1.386581e-01  5.874004e-01  3.411265e+00  2.010145e-01  4.097596e-01  -7.248800e-01  -4.127561e-01  -7.242408e-01  2.443285e+00  3.004704e+00  -1.118501e+00  3.727155e-01  1.217186e+00  
      </Weights>
      <Biases Rows="128" Columns="1">
        1.627336e+00  1.876836e+00  1.942318e+00  -1.507192e+00  -1.555928e+00  -2.354397e+00  1.305990e+00  1.361295e+00  -3.508426e-02  1.763857e+00  -1.185943e+00  -1.251972e+00  -1.500813e+00  2.086958e+00  1.350703e+00  -1.872008e+00  1.779432e+00  5.033650e-01  -7.040526e-01  -1.899042e+00  -2.092189e+00  3.577400e-01  1.001249e+00  8.412229e-01  -1.882099e+00  2.402247e+00  3.360130e-01  1.771409e+00  1.195787e+00  -2.082677e-01  4.016634e-02  -1.220039e+00  2.110887e+00  -1.052855e+00  -3.614992e-01  1.359289e-01  1.126338e+00  1.655785e+00  1.316071e+00  2.050864e+00  2.040060e+00  9.796734e-01  -2.108580e+00  -1.877016e+00  -2.278069e+00  -9.357554e-01  1.542023e+00  -1.775857e+00  -1.118991e+00  1.436696e+00  -1.906113e+00  -2.093411e+00  -1.686013e+00  9.532842e-01  -3.453636e-01  -1.343414e+00  2.605324e+00  2.410894e+00  7.895035e-01  2.135407e+00  1.706616e+00  -4.705149e-01  -1.900327e+00  -1.827819e+00  1.714581e+00  2.804334e+00  -1.927452e+00  -5.870848e-01  -9.035427e-01  -2.451603e-01  5.637719e-01  1.034370e+00  -1.773262e+00  1.194911e+00  -1.611156e+00  -1.811073e+00  -1.489604e+00  9.720506e-03  -2.496691e+00  2.914001e+00  -1.284493e-01  2.445128e+00  7.422860e-01  2.584286e+00  5.548416e-01  6.355090e-01  -2.089594e+00  8.805940e-01  5.765875e-01  -2.651671e+00  -1.681426e+00  4.857117e-01  -1.848796e+00  1.191867e+00  6.637266e-01  -1.188549e+00  1.765718e+00  1.098299e-02  1.262190e+00  4.685561e-01  2.299628e+00  -2.456472e+00  2.716715e+00  -4.484029e-03  2.218662e+00  -2.087200e+00  -1.211124e+00  -1.322077e+00  1.393605e+00  -1.062488e+00  -8.402469e-01  9.303826e-01  2.236833e+00  -6.079906e-01  3.229055e-01  -2.117458e+00  -1.002190e+00  -3.258617e-01  -8.272984e-01  1.799631e+00  2.959400e+00  -1.858916e+00  7.334913e-01  -5.305239e-01  -1.242567e+00  7.204714e-01  4.276677e-01  1.746452e-02  
      </Biases>
    </DenseLayer>
    <DenseLayer Width="128" ActivationFunction="3">
      <Weights Rows="128" Columns="128">
        1.216673e+00  -9.679521e-01  1.475676e+00  -6.552877e-01  5.928858e-01  2.445594e+00  5.047209e-01  2.821637e+00  2.596444e+00  -8.564229e-01  2.044075e+00  1.521292e-01  -1.109676e-01  2.060457e-01  -1.893850e+00  1.891581e+00  -7.118340e-01  2.725579e+00  -1.115820e+00  2.167696e+00  -1.210160e-01  2.877913e+00  4.752945e-01  8.711249e-01  -1.908886e+00  -8.992867e-01  -2.028179e+00  -1.175597e+00  -7.709610e-01  -1.058685e+00  -5.858231e-01  8.643959e-01  -2.352942e-01  5.348651e-01  -1.966290e-01  -1.793057e+00  -1.161221e-01  1.220321e+00  -1.088739e+00  -2.549961e+00  2.253313e-01  2.629862e+00  1.161241e+00  1.159842e+00  1.103462e-01  -5.687640e-01  1.583526e-01  -1.171746e+00  9.522937e-01  1.087998e+00  3.111444e+00  -1.021372e+00  -1.391785e+00  -1.223534e+00  -7.559530e-01  -9.331214e-01  -2.234626e+00  9.487286e-01  2.195883e+00  -4.606692e+00  -1.922311e+00  1.242403e+00  1.917140e+00  -3.747035e-01  7.095800e-01  -2.639764e-01  3.384089e+00  -2.388660e-01  -1.279200e+00  2.499261e-01  -2.276851e+00  1.910111e+00  -1.493965e+00  -2.429595e-01  -1.364267e+00  1.313089e+00  1.551022e+00  -1.742737e+00  1.195476e+00  -8.046986e-01  1.851355e-02  -7.851998e-01  5.314924e-01  -2.835161e-01  -4.621043e-01  -5.412056e-01  2.489122e-01  6.277013e-01  2.145824e+00  2.061659e+00  -1.891101e+00  1.945036e+00  2.436482e+00  1.968587e+00  1.603064e-01  1.891391e+00  -1.995829e+00  -2.446481e+00  1.137714e+00  8.069152e-01  -1.767171e+00  1.210130e-01  -2.584380e+00  1.056195e+00  -1.498844e+00  2.768023e+00  -2.299596e-01  -2.460083e+00  -5.245207e-01  -8.065446e-01  -5.833429e-01  -3.082248e+00  2.530118e-01  -9.187696e-01  -1.684264e+00  8.000456e-02  1.577333e+00  -3.415316e+00  -1.865043e+00  -3.570837e-01  -2.257634e+00  1.782108e+00  -2.101503e+00  9.548810e-01  -7.636240e-01  9.343923e-01  -6.854583e-01  -8.811287e-01  -2.013474e+00  -5.023960e-01  -2.425666e+00  4.528281e-01  1.905996e+00  2.917041e+00  -8.215294e-02  -1.716758e+00  -1.221274e+00  -9.672759e-01  9.896626e-04  -1.022951e+00  -3.751445e-01  -1.585574e+00  -1.997850e+00  1.911438e+00  -1.648910e+00  1.149670e+00  -1.379936e-01  2.072894e+00  1.920664e+00  -1.775319e+00  -4.375337e-02  -1.158768e+00  2.182342e+00  -3.950704e+00  1.080880e+00  -1.130158e+00  -3.735267e-01  1.150935e+00  3.784274e-01  1.797387e-01  -1.468891e+00  3.063247e-01  3.510914e-01  -8.711513e-01  -1.151995e+00  1.468076e-01  -1.333988e+00  -2.358189e+00  -1.255790e+00  -1.205081e-02  2.735493e+00  1.015350e+00  1.303291e+00  1.051792e+00  -7.898011e-01  8.238016e-01  -3.476191e-01  3.444949e-01  1.136794e+00  2.014127e+00  2.440396e+00  7.100510e-01  1.579252e+00  -1.021452e+00  -2.129334e+00  -1.197812e+00  -3.706989e-01  -5.117043e-01  -8.213273e-01  1.845976e+00  1.691710e+00  2.659607e+00  -8.024688e-01  -3.272017e+00  8.760067e-01  1.943424e+00  -9.337621e-01  9.594907e-01  -1.895076e+00  -8.158016e-01  6.643196e-01  -5.538640e-01  -2.751027e-01  2.366156e+00  1.923528e+00  -1.348322e-01  3.654098e+00  -2.007095e+00  -5.676720e-01  -2.290683e+00  -1.244077e+00  -3.287755e+00  -1.410603e-01  -1.173637e+00  2.158411e+00  -1.317347e+00  9.999397e-02  3.151812e+00  9.917870e-01  -7.902948e-01  -3.828964e-01  -1.180853e+00  4.471022e-02  1.464501e+00  -1.028386e+00  -1.453563e-01  -2.077154e-01  -4.982226e-01  -1.055039e+00  3.967120e+00  -2.214792e+00  4.974381e-02  2.627046e-01  1.526201e+00  4.436894e-02  1.099715e+00  -1.145676e+00  -1.667197e-01  -3.457582e-01  4.548346e-01  -1.743691e+00  1.272660e+00  1.279267e+00  1.080699e+00  -6.197532e-01  1.312389e-01  -2.297331e-01  -1.514264e+00  -5.096706e+00  1.723869e+00  -1.981937e+00  -1.467871e+00  1.590454e+00  1.202709e+00  -8.301921e-01  -4.919086e-01  -1.970919e+00  -3.233637e-01  -3.926625e+00  3.320307e+00  -9.585140e-01  1.276929e-01  -1.434480e+00  -5.069677e+00  -1.943977e+00  -6.228099e-01  -1.100011e+00  1.028080e+00  2.767591e+00  -8.930179e-01  4.239816e-01  -5.277986e-01  -1.068973e-01  2.804176e-01  4.589667e-01  4.435407e-02  5.046028e-01  -3.059943e+00  -7.454260e-01  -3.731562e+00  3.874805e+00  -4.565840e-01  -1.467967e-01  -5.560619e-01  1.529723e+00  -1.400617e+00  3.812470e-01  6.709208e-02  -3.262087e-01  -2.749225e-01  1.833634e+00  -3.478229e-01  -4.689524e-01  -1.382314e+00  -4.286386e-01  3.327184e-01  -2.092232e+00  -2.042566e+00  -1.178228e-01  2.316118e-01  8.609208e-01  1.349457e+00  -8.429222e-01  3.208797e+00  8.574230e-01  -3.063372e+00  -2.350682e-01  6.452305e+00  4.933657e+00  6.596798e-02  -1.373482e+00  2.321757e+00  -6.684202e-02  -2.608125e+00  -3.022547e+00  1.511496e+00  7.308092e-01  -6.748853e-01  1.445204e-01  1.049181e-01  -4.546704e+00  -3.810506e-01  -1.688965e-01  4.634417e-01  1.758420e+00  -4.819155e-01  6.140952e-01  -3.043000e+00  6.851500e-01  -4.249601e-01  1.162417e+00  -1.885786e-01  -1.995558e+00  -9.157486e-02  3.456527e-01  -8.003944e-01  1.844173e+00  -7.004732e-01  -1.571393e+00  -1.590760e-01  1.412952e+00  1.156691e+00  2.250839e-01  -1.586475e+00  5.395846e-01  6.480177e-01  2.764243e+00  -3.294146e-01  -1.957506e-02  -4.892931e+00  -8.785529e-01  -2.119462e+00  -1.368453e-01  1.245217e+00  -2.159267e+00  1.871688e+00  1.011649e-01  5.287544e-01  4.374384e-01  -1.385146e-01  -8.369179e-01  2.110898e-01  8.406731e-02  3.473500e+00  -1.128244e+00  1.479315e+00  1.102364e+00  1.843862e+00  -5.743861e-01  2.202586e-01  -2.167517e+00  9.562025e-01  1.529117e+00  3.387036e+00  2.604223e+00  -3.341042e-01  -3.323660e-02  4.923834e-01  1.328865e+00  9.089577e-01  6.383919e-01  -9.442788e-01  9.266041e-02  -9.025241e-03  -7.787589e-01  1.303687e+00  -9.777290e-02  -9.732305e-01  -3.900922e+00  -1.189977e+00  3.567705e-01  -1.690809e+00  -1.804414e+00  -8.589507e-01  -2.256880e+00  5.046260e-01  -5.659752e-01  -2.803544e-01  -1.595464e+00  1.880298e+00  2.448176e+00  9.919912e-01  1.137830e+00  -1.322977e+00  -4.210593e-01  1.143808e-04  -1.494890e+00  3.573251e-01  6.284823e-01  6.483060e-01  6.352108e-01  -1.702776e+00  3.167254e+00  -1.080757e+00  -7.591591e-01  1.921830e+00  6.839929e-01  -3.683145e+00  -5.504808e-01  -1.503061e+00  6.479587e-02  -6.089922e-01  -1.351484e+00  1.153237e+00  2.261614e+00  1.001508e-01  -4.891873e-01  -5.235747e-02  2.031711e-01  -2.194916e+00  -3.502121e-02  -1.226088e+00  4.550952e-01  8.246136e-01  2.022785e+00  -1.705968e+00  6.553043e-01  6.171198e-01  -9.510223e-01  -2.114575e+00  7.194421e-01  3.730824e-01  8.083203e-01  -2.541186e+00  3.850244e+00  2.052760e+00  -1.134089e+00  -7.159006e-01  1.553800e+00  7.678297e-01  1.780888e+00  8.277697e-03  -2.783716e+00  -1.868306e+00  -8.767731e-02  -2.311337e+00  -7.593995e-01  -1.607653e+00  1.921485e+00  -1.927428e+00  1.193159e+00  -8.528373e-01  -5.319840e-01  3.199388e-01  3.416866e+00  -8.170714e-01  -1.664937e+00  5.465437e-01  3.317843e+00  3.330380e+00  -3.093099e-01  1.126719e+00  -2.662997e+00  -1.139535e+00  8.477746e-01  3.082048e+00  6.132931e-02  -6.007071e-01  -2.279259e-01  1.257374e+00  -1.904472e+00  -3.139879e+00  5.008067e-01  3.506401e+00  1.282453e+00  -6.324413e-01  7.061032e-01  6.253080e-01  -4.534217e-01  2.141852e+00  1.468655e+00  6.132820e-01  -9.238297e-02  -1.883233e+00  -2.372554e+00  -1.611853e+00  1.970337e+00  -1.685295e+00  -8.399463e-01  5.487877e-01  7.458441e-01  -8.206971e-01  -4.324339e-01  -7.880430e-01  9.467385e-01  2.256951e+00  -7.543218e-01  1.171694e+00  -2.093636e+00  1.798946e+00  -1.626786e+00  -2.977642e+00  -9.329028e-01  6.361961e-01  3.573165e+00  -2.878203e+00  -7.673856e-01  -1.948772e+00  3.848856e+00  -4.041175e-01  -9.039195e-01  1.003487e+00  7.097455e-01  9.681997e-01  -2.549159e+00  5.878966e-02  3.399850e-02  -3.078597e+00  9.337474e-01  2.135528e+00  6.311477e-01  -1.023877e+00  -5.861560e-01  -2.178963e+00  7.414766e-01  -6.715910e-01  -3.806345e+00  8.960478e-01  -8.975939e-01  1.495883e+00  -1.353696e+00  5.596222e-01  6.911887e-01  -2.850056e+00  9.181594e-01  -1.884767e+00  2.930848e-01  -1.763066e-01  1.104258e+00  -8.312096e-01  8.022611e-01  2.088457e+00  3.677850e+00  7.057652e-01  -1.525228e-01  5.390670e-01  -5.310844e-01  -1.394565e+00  7.811839e-01  -2.984035e+00  -1.979677e-01  3.537483e+00  -8.442804e-01  -5.501808e+00  -1.648682e+00  5.796583e-01  4.417356e-01  -4.148585e+00  2.344955e+00  2.388218e+00  2.137156e+00  2.578894e+00  6.578465e-01  1.505216e-01  -3.634268e-01  -1.283322e+00  4.338877e+00  7.553370e-01  -2.776404e+00  1.671630e+00  -2.814882e+00  -1.832303e+00  -3.428369e-01  -1.220030e+00  -2.159240e+00  1.028484e+00  -3.450398e-01  -5.220930e-01  -2.179723e+00  5.861701e-01  -1.756871e+00  1.514968e+00  1.208276e+00  7.672287e-01  5.695703e-01  1.216655e+00  -1.190397e+00  1.842986e+00  -6.609676e-01  -1.277461e-01  5.797104e-01  -2.584471e+00  1.919953e-01  5.053592e-01  -9.697642e-01  -1.083491e+00  -1.645111e+00  -1.096496e+00  1.167031e+00  4.623389e-01  7.557707e-01  1.741863e+00  6.243499e-01  -8.887297e-01  2.176872e+00  -2.366449e-01  5.487580e-01  -1.711383e+00  1.634623e-02  1.086248e+00  2.343919e+00  -3.928545e+00  -7.272258e-01  1.394585e+00  1.452587e+00  -1.986275e+00  8.739157e-01  5.441217e-01  -5.227342e-01  1.003460e-01  9.704474e-01  -2.654039e-01  2.014246e+00  -2.773577e+00  -5.393559e-01  8.968993e-01  -1.879441e+00  3.880084e+00  9.306716e-01  -3.173759e-01  5.311530e-01  1.390059e-01  -7.987440e-02  1.129590e+00  -5.470503e-01  3.184828e+00  5.575638e-01  -3.089673e+00  -2.097366e+00  2.102180e+00  9.494420e-01  3.048261e+00  4.495341e-01  -5.823351e-01  7.881144e-01  -1.531577e+00  -3.429748e-01  -1.655379e+00  3.460709e+00  3.358887e+00  5.720820e-01  -2.806665e+00  7.355081e-01  -4.738112e+00  7.126102e-01  -1.753360e+00  6.435468e-01  1.106527e+00  -1.677240e-01  5.464991e-01  9.111860e-01  1.250252e+00  8.683009e-01  -7.071197e-01  4.402710e-01  -3.155597e+00  1.990409e+00  -1.143127e+00  -1.411287e+00  -1.263773e+00  -1.915961e+00  -3.373966e+00  -1.355989e-01  8.872404e-02  3.857051e-01  -2.981690e-01  1.717706e-01  1.574000e+00  3.584576e+00  -1.576361e+00  -2.452491e+00  7.910578e-01  4.037825e+00  9.917160e-02  8.644391e-01  1.879904e+00  -1.877372e+00  -2.377618e-01  -2.723266e+00  1.352270e+00  3.741997e-01  -1.144470e+00  -9.044629e-01  -9.296724e-02  -1.249410e+00  7.025670e-01  -2.566407e+00  1.212727e+00  1.514683e+00  -9.617323e-01  1.394883e+00  -8.972717e-01  -8.410842e-01  -1.241531e+00  5.124807e-02  1.285240e+00  -1.993956e+00  -1.171599e+00  1.094326e+00  -1.030195e-01  9.215667e-01  -5.370342e-02  9.071900e-01  1.563944e-01  1.077818e-01  3.688588e-01  6.417806e-01  -1.777133e+00  3.965878e+00  1.688487e+00  -1.523238e-01  4.750278e-01  -1.310226e+00  -2.773976e+00  8.207130e-01  -1.854667e+00  1.142443e+00  3.839334e+00  -4.668505e+00  8.491457e-01  -5.207381e-01  1.559359e-01  -4.534556e-01  8.857722e-01  2.084197e-01  -1.582775e+00  8.365459e-01  1.239303e+00  -1.213892e+00  -1.522816e+00  3.978682e-01  2.278070e-01  4.991029e-01  -3.269195e-01  1.117312e-01  3.209805e-01  2.715021e+00  3.174339e+00  3.102300e+00  -5.151513e-01  -9.366016e-01  -1.659876e+00  1.496947e+00  -1.039546e+00  4.811616e-01  -2.169486e-01  3.517401e+00  -1.099862e+00  -2.543356e+00  -2.716565e+00  -2.902583e+00  3.350833e+00  5.446948e-01  1.189503e+00  -1.892442e+00  -7.805653e-01  2.729728e+00  -7.056122e-01  -1.041479e+00  1.112356e+00  2.578123e+00  -5.207304e-01  -4.944354e-01  1.199844e+00  -5.442596e-01  -5.974326e-01  3.334548e-01  6.864527e-01  1.714038e+00  1.125770e+00  -1.117576e+00  2.124329e-01  2.535283e+00  -1.586071e+00  -2.430210e-01  -7.748716e-01  9.050629e-01  -5.605323e-01  1.402219e+00  -2.820984e-01  -8.297251e-01  1.393780e-01  2.239813e+00  -3.102108e-01  -2.300682e+00  -1.724807e+00  1.343882e+00  -1.732583e+00  -2.816066e+00  2.144298e+00  8.220526e-01  -6.641981e-01  1.201515e+00  3.398971e-01  -1.502136e+00  3.302369e+00  -9.068797e-01  -2.566218e+00  9.770916e-01  5.370599e+00  6.208329e-01  -2.160912e+00  -8.150561e-01  7.925181e-01  -1.853892e+00  -2.898872e+00  1.546854e+00  -1.850267e+00  -6.844022e-01  -2.297177e-01  1.051468e+00  1.648488e-01  -3.687807e+00  -1.265872e+00  1.424851e+00  -1.155322e+00  2.069903e+00  1.369774e+00  4.689035e-01  -1.224956e+00  2.638514e+00  3.075822e-01  1.672853e+00  5.953687e-01  -3.317498e-02  -1.381836e+00  2.181039e+00  -2.497084e+00  7.382859e-01  -1.524197e+00  -2.306722e-01  -1.380463e+00  8.181626e-01  -9.284268e-01  1.071739e+00  2.183978e-01  -7.811879e-01  2.579380e+00  2.492094e+00  -4.939369e-01  2.589988e+00  7.646704e-01  -1.431053e+00  -7.779008e-01  -1.685874e+00  7.637314e-02  -1.100216e+00  4.137353e-01  -1.742380e-01  1.934331e+00  -2.702231e+00  -4.317846e-01  -2.627394e+00  1.647439e+00  1.557513e+00  1.128850e+00  7.551256e-01  2.432510e+00  2.828791e+00  5.403491e-01  -1.920404e+00  8.547502e-01  -9.627509e-01  3.645389e-01  9.105310e-01  -2.993112e+00  -5.074012e-01  -1.371420e+00  -3.222616e+00  9.857461e-01  -7.600228e-02  1.814178e+00  8.133088e-01  -1.055611e+00  -1.419109e+00  9.062391e-01  -3.205049e-01  -2.717255e-01  -3.753458e+00  1.373896e+00  -1.617095e+00  -7.489602e-02  -1.020271e+00  -3.323889e+00  -2.385912e+00  -4.502757e+00  -7.445180e-01  -7.981683e-01  1.024441e+00  -2.271725e-01  -4.778438e-02  8.514143e-01  1.249651e+00  -2.198331e+00  1.438278e+00  4.086586e-01  -1.434658e-02  -1.264517e+00  -7.146215e-01  -3.011597e+00  4.400270e+00  7.266040e-03  -8.925972e-01  -3.551792e+00  5.785082e-01  -1.258307e+00  -1.956416e+00  3.928977e+00  1.112655e-01  -1.229968e+00  -1.477024e+00  -9.237841e-01  1.900328e+00  -8.333936e-01  -9.756268e-01  -1.176107e-01  -1.479158e+00  -1.268808e+00  -8.954220e-01  -9.906749e-01  -7.970985e-01  4.288417e-01  1.960692e+00  2.307386e+00  5.123984e-01  -1.527587e+00  3.799268e+00  4.962778e+00  4.771300e+00  1.943500e+00  -1.957236e+00  2.295002e+00  -2.343686e-02  -8.452750e-01  -2.904251e+00  -6.341594e-01  2.185557e-01  6.971278e-01  -1.408516e+00  -3.122691e-01  -2.736174e+00  2.083710e-01  9.586174e-01  -1.106903e+00  1.671195e+00  -3.797129e+00  5.910405e-01  -1.582661e+00  5.104648e-01  -3.593064e+00  9.255471e-02  -5.088919e-01  -1.047921e+00  2.664341e+00  -4.486131e-02  1.536150e+00  2.060506e+00  5.662172e-01  -6.987620e-01  3.739201e-01  6.304560e-01  1.372138e+00  5.108080e-02  7.418430e-01  -1.875793e-01  5.366812e-01  6.187891e-01  1.811624e+00  -2.057940e+00  -2.687153e+00  -1.264241e+00  2.658992e-01  -1.451845e+00  -2.295932e-01  -3.141397e+00  1.695753e+00  5.732895e-03  -3.059942e-03  7.959848e-01  -2.427770e-02  -1.491135e-01  1.261836e+00  2.109464e-01  7.076401e-01  -3.869434e+00  -5.857664e-01  -3.850729e-01  -1.678163e+00  1.675225e+00  -6.218412e-01  -1.608711e+00  2.553129e-02  -1.328172e+00  2.816036e+00  2.132944e+00  8.629111e-01  2.350901e-01  8.435290e-01  8.011143e-01  1.469053e+00  -1.020868e+00  -2.519941e+00  -1.418062e+00  -5.263634e-01  9.443752e-02  5.096124e-01  -1.692882e+00  1.147591e+00  -1.511415e+00  -2.190562e+00  -2.900960e+00  -1.663975e+00  -1.992619e+00  -6.558254e-01  -3.913987e-01  -1.275792e+00  2.357967e+00  2.601315e+00  -6.798632e-01  -2.231969e-01  7.213086e-01  8.717723e-02  -8.397710e-01  -1.383359e+00  -4.481489e-01  -5.670435e-01  1.200196e-01  -8.976799e-01  1.088699e+00  2.736613e+00  -4.216953e-02  2.849345e-01  5.576562e-01  -1.220940e+00  -1.436913e+00  -1.010984e-01  2.658216e+00  -5.612769e-01  -7.869988e-01  2.094857e+00  1.559418e+00  4.686193e-01  -3.117366e-01  1.484699e+00  -1.525238e+00  -1.306227e+00  -1.875128e+00  -2.092237e+00  -2.008060e+00  1.191544e+00  2.191871e+00  1.072843e+00  -2.653944e-01  -2.525193e+00  2.216332e-01  3.070577e+00  1.934377e+00  5.292283e-01  -1.086010e+00  5.019066e+00  1.499739e+00  -4.485739e-01  -2.091577e+00  7.260726e-01  7.363726e-01  -4.076489e-01  -6.091024e-01  -2.465516e+00  -2.621855e+00  1.946024e+00  -9.801245e-01  -3.960974e-01  4.002728e+00  -1.694986e+00  8.370919e-01  -8.602023e-01  2.763855e+00  1.490515e+00  -8.721669e-01  -1.477966e+00  1.840734e-01  2.495294e+00  -1.661133e+00  1.255950e+00  1.439805e+00  3.220222e+00  -1.930381e+00  1.651175e+00  3.214829e-01  2.522388e-01  -2.331520e+00  -9.030752e-02  5.333911e-01  -1.727870e+00  3.241980e-03  4.116586e-01  -1.569828e+00  -1.832612e+00  7.599641e-01  4.208503e-01  5.799028e-02  1.686769e+00  -2.118626e-01  1.303155e+00  6.428671e-01  -1.919832e+00  1.284755e+00  1.534321e+00  -1.842177e+00  -7.541733e-01  -1.519024e+00  9.660912e-01  -1.631507e+00  6.495112e-01  -2.240141e+00  -8.218732e-01  -2.159781e-01  9.323134e-01  -1.188197e+00  -1.288347e+00  -2.366097e+00  3.067859e+00  7.154524e-01  2.702899e+00  2.815233e+00  -3.552935e-01  1.167604e+00  1.412286e+00  -2.291174e+00  -3.434480e+00  -1.373513e+00  1.884132e+00  2.268516e+00  -3.384306e-01  9.730619e-01  1.115146e+00  -6.751000e-01  -1.021981e+00  -2.107701e+00  2.422088e+00  2.324778e+00  -1.285136e+00  -1.632188e+00  -1.124717e+00  8.821784e-01  1.428538e+00  9.449024e-02  1.813708e+00  5.752151e-01  9.798878e-01  -1.532015e+00  -1.445679e+00  -1.879400e+00  1.280019e+00  -1.926952e+00  1.789895e+00  -1.225724e-01  1.605499e+00  6.634636e-01  -1.445876e+00  2.093305e+00  -4.765454e+00  -3.025670e+00  2.294489e+00  9.960315e-01  3.533139e-01  3.770223e-01  1.072948e-01  -3.628235e-01  1.906982e+00  1.632711e+00  4.162576e-01  -2.530656e-01  1.144162e+00  -2.728413e+00  -1.714766e+00  -3.264410e-01  5.269455e-01  4.244640e-02  3.937449e-01  -1.496194e-01  -8.156665e-01  1.329867e+00  1.560209e-01  -2.150628e+00  -1.044993e+00  -4.579757e+00  -1.468112e-01  7.179508e-02  1.137694e+00  3.227699e-01  -2.317257e+00  -2.514755e-01  -7.720355e-03  -6.896460e-01  -1.427364e+00  -1.541326e+00  1.636242e+00  1.411469e+00  -4.685265e+00  3.020073e-01  -2.088263e-02  2.398051e-01  9.814572e-01  -2.952332e-01  -5.371936e-02  -1.568673e+00  -6.229963e-01  3.171182e-01  1.113472e-01  -1.067999e+00  1.336266e-01  -2.394601e-01  9.843462e-01  -4.561235e-01  1.296505e+00  2.080247e+00  -8.556914e-01  -1.829175e+00  3.315530e+00  -1.982759e-01  -6.128922e-01  -1.801455e+00  -3.413984e-02  1.070945e+00  2.278881e+00  1.140119e+00  -1.762239e-01  -2.858783e+00  -2.008104e+00  5.942281e-01  1.017828e+00  1.709334e+00  -1.470250e+00  6.525018e-02  9.566247e-01  7.419855e-01  1.317377e+00  -1.546386e+00  -1.298493e+00  -1.405557e+00  5.097553e-01  5.862368e-01  -1.542982e+00  -1.090416e-01  4.318626e-01  -4.660513e+00  -6.406524e-01  -5.520953e-02  -1.802040e+00  -1.676053e+00  1.121781e+00  2.641121e+00  8.285007e-01  3.946131e-01  2.000410e+00  -1.398249e+00  -1.899757e+00  -7.441373e-01  -1.084030e-01  -1.916176e+00  2.049306e+00  1.967615e-01  -2.265464e+00  -7.861977e-03  1.189414e+00  2.451735e+00  -3.097533e+00  -3.070093e+00  2.601325e+00  3.196500e+00  9.475237e-01  -1.579167e+00  1.423736e-01  1.862856e+00  -1.578333e+00  -3.506072e-01  -2.622519e-01  1.331512e+00  1.616349e+00  -3.278350e-01  -4.077573e+00  1.185308e+00  -3.341784e+00  1.835408e-01  5.248244e-01  1.037486e+00  8.371312e-01  -3.144517e+00  3.589052e+00  1.880321e+00  1.242103e+00  -7.530311e-01  2.103500e-01  -2.089437e+00  -2.752697e-01  2.196170e+00  -1.794992e+00  -1.073509e+00  1.055046e-01  2.786839e+00  -2.484143e+00  2.862106e-03  -6.669859e-02  -1.293721e+00  -1.154752e-01  3.220621e-01  -2.014712e+00  2.716761e+00  1.390026e+00  -1.737146e+00  -1.334396e+00  3.865186e+00  1.966503e+00  3.976528e+00  2.358188e-01  7.193118e-02  1.348695e+00  -1.735950e+00  8.281166e-01  -1.874966e+00  -1.003202e+00  -1.368663e+00  8.716052e-01  2.446196e+00  6.464960e-01  -1.939573e+00  1.208538e+00  -2.314426e-01  -3.339823e+00  1.316859e+00  -1.017425e+00  2.108488e+00  -3.537005e-01  3.104213e-01  -7.844200e-01  -1.621665e+00  2.570029e+00  -9.394731e-01  1.270516e+00  4.945600e-01  6.357948e-01  -1.433946e+00  4.804886e-01  -2.725053e+00  3.046887e-01  -8.146645e-02  -2.382503e+00  1.487532e-01  -4.289258e-01  7.104047e-01  8.836306e-01  -2.223672e+00  -3.004232e+00  7.518429e-02  5.601689e-02  2.972378e+00  1.184577e+00  -1.698088e+00  -1.130094e-01  -1.452590e+00  -5.239596e-01  1.072174e+00  1.939905e-01  -2.862971e-01  -2.162889e+00  1.243803e+00  1.020633e+00  -7.483187e-02  -2.060123e+00  5.772153e-01  -1.348505e+00  1.083522e+00  -3.588297e-01  3.465437e+00  6.415885e-01  1.798189e-02  3.263244e+00  9.613807e-01  -1.427589e+00  2.906702e-01  -2.217189e+00  7.968849e-01  -2.503927e+00  -5.784897e-01  1.647834e+00  1.624089e+00  4.020737e-01  1.799897e+00  2.286606e+00  -1.601615e-01  -8.280624e-01  -1.419542e+00  -2.848973e+00  1.075835e+00  6.344949e-01  8.312117e-01  -8.777208e-01  -1.719212e+00  -3.452791e-02  -6.707702e-02  2.558233e+00  1.354860e+00  -8.851827e-02  1.056821e+00  -2.325046e+00  -1.544245e+00  -1.570990e+00  -1.766239e+00  4.631276e-01  -1.548887e+00  -3.572913e-01  5.244898e-01  2.077397e+00  2.375920e+00  1.768694e-01  1.427194e+00  -6.840991e-01  -6.626670e-01  7.665542e-01  8.743864e-01  -1.006122e+00  -2.275393e+00  2.229844e+00  7.673836e-01  6.660278e-01  2.717061e+00  1.852165e+00  1.682746e+00  2.543806e-01  -1.887175e+00  -1.626828e+00  -1.569627e+00  1.989063e-02  1.024225e-01  -1.228289e+00  -3.383047e-01  -7.757779e-01  4.412904e-01  -4.338447e-01  -5.916721e-01  1.275915e+00  -7.461070e-01  3.333117e-02  2.154135e+00  1.825525e+00  -1.354402e+00  -4.684771e-01  1.034256e+00  -3.176087e-01  -2.087640e+00  -4.826848e-01  5.979296e-01  2.429396e+00  1.053518e+00  -2.032674e+00  5.824997e-01  -3.079245e-01  1.221829e+00  -1.336665e-01  2.485643e-01  2.094490e+00  -1.127250e-01  -2.269169e+00  -5.957583e-01  -7.400839e-01  -2.584783e+00  2.225803e+00  1.443880e+00  2.601149e+00  5.211759e-01  2.319243e+00  1.211181e+00  1.966001e+00  -2.026096e+00  1.046793e+00  -2.888263e-01  -2.906304e+00  -9.773235e-01  3.903279e-01  -1.545424e+00  4.566276e-02  -1.385134e+00  -1.804804e+00  5.111898e-01  -5.875329e-01  6.171765e-01  9.185841e-01  1.116572e+00  -2.374428e+00  1.952648e+00  -3.481518e+00  3.477402e+00  1.516937e-01  -1.396901e+00  -4.161582e-01  -4.970624e-01  5.555256e-01  2.967517e+00  -1.193907e+00  5.918767e-01  9.338881e-01  -8.013754e-01  -2.679626e+00  1.957264e-01  -1.920450e-01  5.012564e-01  2.174050e+00  3.027165e+00  -1.328151e-01  1.178432e+00  5.667529e-01  -9.627236e-01  -6.813855e-01  -2.137408e+00  1.838743e-01  -3.475420e+00  -7.709563e-01  -1.065548e+00  -2.122150e-01  3.712180e-01  2.467915e+00  -5.735931e-03  8.621185e-01  1.537786e+00  -1.821787e+00  9.802890e-01  2.008043e+00  -6.040950e-01  -2.228992e+00  -1.703466e+00  2.523589e+00  -8.619286e-01  -5.146213e-01  2.359907e+00  1.727833e+00  1.022395e+00  -7.528853e-01  -1.582506e+00  6.634941e-01  1.181187e+00  -1.211327e+00  -1.166966e+00  -3.158744e+00  -2.190882e-01  -1.031126e+00  -8.878528e-01  -8.787093e-02  -3.435639e-01  6.356744e-01  -1.644031e-01  -1.476387e+00  -1.423726e+00  -2.599054e+00  -1.562336e+00  -2.244668e+00  -7.789907e-01  5.415095e-01  9.286070e-01  7.079349e-01  1.528902e+00  -1.434400e+00  -3.849266e-01  7.775086e-01  -7.581247e-01  1.031085e+00  2.439696e+00  3.288718e-01  -1.145298e+00  -2.480304e+00  -7.031633e-01  -1.797537e+00  -2.033658e+00  -1.327740e+00  2.234864e+00  -4.891810e+00  -6.103270e-01  1.961714e-01  2.454576e+00  -5.235572e-01  3.142714e-01  -7.660358e-01  3.147157e+00  -1.220442e+00  -2.135534e+00  5.758584e-01  -4.981860e-02  -1.473989e-01  -3.821183e-01  -2.601584e+00  3.200611e+00  6.381040e-01  -1.442783e-01  -1.498700e+00  2.034241e+00  -1.233155e+00  6.926675e-02  -3.138735e+00  -5.560281e-01  -6.055560e-01  1.890870e-01  2.138359e-01  1.239673e+00  1.434642e+00  -1.525163e+00  1.956954e+00  1.131527e+00  -5.191644e-01  2.599409e+00  -3.879751e-01  -2.336961e+00  4.418108e-01  -3.049310e+00  -2.954625e+00  -3.342318e-01  -7.969147e-02  -1.407867e+00  1.368674e+00  -1.729515e+00  -3.172588e+00  -2.743275e+00  3.397257e+00  2.109621e+00  2.743316e-01  -3.469521e-01  -5.496906e-02  -2.671365e-01  -2.435871e+00  -1.435799e+00  -1.428128e-01  -1.457074e+00  2.124684e-01  2.483806e+00  -2.638931e+00  2.349139e-01  -3.237657e+00  -1.851314e+00  3.146105e+00  -2.067732e+00  1.018150e+00  4.323478e-01  -3.795282e-02  -1.000863e+00  -5.912593e-01  -2.095110e+00  -1.625219e+00  -9.005445e-01  1.537749e+00  1.802928e+00  1.771214e+00  5.532951e-01  -1.556692e+00  -6.320003e-02  1.090592e-01  1.156285e+00  -2.428583e-01  2.777826e-01  -2.562534e+00  -9.328254e-01  5.403868e-01  -1.364323e+00  9.301305e-01  3.699962e-01  1.742182e+00  1.742225e+00  -1.956948e+00  7.965144e-02  -1.094829e+00  1.657733e+00  -1.549267e+00  1.454909e+00  1.969828e-01  -2.125945e+00  2.004386e-01  1.766392e+00  -1.063767e+00  -1.590536e+00  1.138001e+00  8.412615e-01  -1.099222e+00  -1.825674e+00  5.393225e-01  -8.288910e-01  -1.245799e+00  -7.844350e-01  -1.760507e+00  1.706697e+00  1.703507e+00  2.941375e+00  -2.758493e-01  -2.758361e+00  1.086479e+00  1.477496e+00  -9.419592e-02  2.445470e-01  5.925190e-01  1.055231e+00  -5.260645e-01  -1.821180e-01  -5.017384e-01  -1.529210e+00  -6.176596e-01  -5.683890e-01  1.844213e+00  -1.540494e+00  9.447725e-01  2.866594e-01  1.275763e+00  -7.141207e-01  -2.567915e+00  -1.052195e+00  1.621098e+00  -1.370294e+00  9.018900e-01  -8.153135e-01  -2.226879e-01  -1.159593e+00  -7.063760e-01  2.111512e-01  2.004328e+00  -5.850159e-02  -1.525439e+00  1.469484e+00  -3.069811e+00  -1.444263e+00  -2.372685e+00  -7.265565e-01  -2.603993e+00  -2.257324e+00  -1.558547e+00  2.545830e+00  -2.231608e+00  -1.357665e-01  1.010391e+00  -3.932777e-01  -1.161571e+00  1.841819e+00  6.687998e-01  1.148805e+00  -3.106588e-01  -8.808309e-01  4.953320e-01  -1.182346e+00  -1.303990e+00  -1.213764e+00  2.694982e+00  -1.881924e+00  7.059869e-01  1.449093e-01  8.388215e-01  5.463792e-01  -3.098252e-01  -6.170371e-01  -1.077266e+00  -3.974393e-01  1.033440e+00  -8.679968e-01  2.868239e-01  1.898365e-02  3.616494e+00  1.397911e+00  2.466665e-02  7.437971e-01  -2.425269e+00  -1.761409e+00  2.872675e-01  -8.224909e-01  2.018156e-01  1.763559e+00  1.784608e+00  2.333580e+00  1.061991e-01  -1.658625e+00  -1.915695e+00  8.026161e-01  2.655739e+00  -9.124339e-02  2.518846e+00  -3.708031e+00  6.093203e-01  1.551489e+00  2.515347e+00  2.522036e+00  2.423241e+00  3.125513e+00  -2.289390e+00  1.481746e+00  -4.893567e-01  -3.749602e-01  -5.433572e-01  1.105620e+00  2.126404e+00  -1.266977e-01  8.447234e-02  3.095080e-03  -2.537573e-01  -3.657712e-01  -5.444825e-01  -1.733989e+00  4.852326e-01  -1.815318e+00  -1.076591e+00  -1.884145e+00  -5.896537e-01  5.349985e-01  -1.598995e+00  2.816807e+00  -1.850338e+00  1.443508e-01  -3.801820e+00  -2.401869e+00  -8.040559e-01  -1.343465e+00  6.935294e-01  2.453479e-01  -3.243216e-01  5.507185e-01  5.086166e-01  1.372487e-01  2.640878e+00  4.404443e-01  -2.845191e+00  -2.226610e+00  1.566920e+00  -8.272557e-01  -4.035280e+00  -8.980939e-01  3.449939e+00  -2.554139e+00  -2.005525e+00  1.676796e+00  7.822846e-01  -2.033800e+00  -2.524908e+00  2.744285e-01  -9.268638e-01  -1.799899e+00  1.610449e-01  -1.146494e-01  -1.250039e+00  1.681213e+00  1.264358e-01  3.994638e-01  -1.071333e-01  7.505428e-01  -7.019738e-01  1.213987e+00  8.378382e-02  -1.788058e+00  4.873551e-01  1.743863e+00  -7.522224e-01  1.484418e+00  -1.426619e+00  -2.427537e-02  -1.478925e-01  -1.428757e+00  2.078266e+00  -3.906157e-01  1.908201e+00  1.131566e+00  2.065231e+00  6.679189e-01  -1.968148e+00  2.784121e+00  -2.123886e+00  -2.901462e+00  -1.695553e+00  5.427331e-01  7.194696e-01  1.542503e-01  1.636581e+00  -6.047967e-01  1.226538e-01  -1.205670e+00  -1.272775e+00  -1.946389e+00  -9.419707e-02  2.296895e+00  1.049993e+00  3.575572e-01  2.901931e-01  1.780228e+00  -1.521457e-01  3.113826e-01  1.920603e+00  -1.033931e+00  8.538582e-01  1.578220e+00  -5.041199e-01  2.900924e-01  -2.675664e+00  -1.607715e+00  -2.415479e-01  8.757579e-01  1.176198e+00  9.995876e-02  -2.277180e+00  3.816666e-01  3.089903e+00  -2.645959e-01  1.213176e+00  1.139601e+00  -2.789677e+00  1.358165e-01  -6.678709e-01  1.428999e+00  -1.408037e-01  4.799072e-01  1.569224e+00  -8.256013e-02  1.328327e+00  -2.320595e+00  -1.343253e+00  -4.067338e-01  -6.798001e-01  -1.289386e+00  1.736724e+00  5.008325e-01  -8.658637e-02  1.654096e+00  -1.625342e+00  1.207553e+00  1.492408e-01  -1.391877e+00  -9.892961e-01  1.663008e-01  1.972457e+00  1.967587e-01  9.102952e-01  1.853251e+00  -2.415119e+00  -3.074562e+00  6.195708e-01  -1.188565e+00  -1.282786e+00  -2.287615e+00  -4.889777e-01  -1.473647e+00  9.172210e-01  1.443727e+00  -2.213006e+00  1.981969e+00  3.032708e+00  3.526260e+00  -7.172859e-01  -4.606290e+00  -2.818902e+00  1.533953e+00  2.337220e+00  -1.069511e+00  -2.583494e+00  -5.476987e-02  -9.581619e-01  1.022230e+00  -4.480550e-01  8.257682e-01  1.412726e+00  -1.506864e-01  5.059372e-01  6.114182e-01  2.773276e-02  1.995886e+00  2.127824e+00  2.467703e+00  -2.272480e+00  -1.802707e+00  2.301353e+00  -1.263650e+00  2.441866e+00  2.399685e-01  6.480578e-01  -9.499736e-01  1.871261e-01  9.075242e-01  1.021816e+00  -1.578369e+00  -2.569682e+00  -9.862553e-02  -2.053171e+00  -2.334884e-02  -1.349268e+00  -6.306723e-01  -2.374126e+00  2.215021e-01  -4.544385e-01  1.724711e+00  -1.889918e+00  -3.124860e-01  -1.686553e+00  -1.459816e+00  -5.162137e-01  -4.638551e-02  -6.248905e-01  1.454745e+00  1.397522e-01  6.262503e-01  1.844197e+00  -6.327617e-01  9.073033e-02  -3.634090e-01  1.162615e+00  8.257287e-01  9.273788e-01  -8.052951e-01  -6.906946e-01  -2.541786e-01  -8.553451e-01  1.394838e+00  -9.946846e-01  -5.616826e-03  1.241669e-01  -4.439789e-01  -2.282854e-01  1.075127e+00  3.320455e+00  2.440916e+00  3.075786e-02  -8.790761e-01  -1.278965e+00  9.905562e-01  -9.442602e-01  -1.213704e+00  -1.900037e+00  2.135759e+00  1.728924e+00  2.118749e+00  6.776958e-01  -1.424769e+00  -3.006152e-01  -1.159664e+00  1.027317e-01  2.203756e-01  5.443493e-01  -7.158059e-01  6.278609e-01  -1.221805e+00  -3.188833e+00  -1.750568e+00  -2.781561e-01  -6.091186e-01  -1.027080e+00  -3.486860e+00  3.486394e+00  -4.293259e-01  1.793427e+00  -3.365592e-01  1.024731e+00  -1.889629e-01  4.363253e-03  -2.518613e+00  8.766381e-01  6.376163e-01  -3.985894e-01  6.540619e-01  -4.024364e+00  1.691783e+00  -1.018046e+00  -2.876502e-01  -1.458678e-01  -8.635123e-01  2.134608e-01  6.643035e-01  -1.780996e+00  -1.726308e+00  1.377188e+00  -4.887309e-01  -1.598734e+00  -9.551907e-01  -4.251572e-01  7.875665e-01  8.011003e-01  8.929508e-01  -1.232198e-03  -2.750783e-01  1.996513e-01  1.118840e-01  1.093490e+00  3.826965e+00  4.441837e-01  -4.905612e-01  1.213996e+00  -9.200975e-01  -1.567983e+00  3.333790e-01  4.145832e-02  -2.678638e-01  -4.577034e+00  1.252224e+00  2.791194e+00  2.711892e+00  1.183313e+00  -3.634388e-01  -1.209954e+00  3.964411e+00  -4.184178e-01  -2.117245e+00  9.030377e-01  -1.666434e+00  3.178006e-01  -9.749761e-01  -1.104717e+00  -5.294633e-01  1.717661e+00  2.248136e+00  2.255684e-01  -1.636613e-01  -1.063155e+00  1.275453e+00  -1.246999e+00  -2.287678e+00  -7.697377e-01  1.574302e+00  -1.484627e+00  4.057591e-01  1.875945e+00  -2.097343e+00  5.031808e-01  -4.419762e-01  6.907851e-01  -2.126933e-01  9.097001e-01  2.129338e+00  2.575005e+00  -4.724019e+00  -1.751507e+00  1.258322e+00  4.284299e-01  -8.042996e-01  6.720303e-01  -3.798820e-01  -1.363707e+00  1.624236e-01  5.125499e+00  -1.306721e+00  -7.685331e-01  -1.761287e+00  -7.863575e-01  -2.534714e+00  -1.562617e+00  -1.609575e+00  -1.105197e+00  -7.702925e-01  1.322851e+00  -8.566045e-01  -8.670073e-01  -2.035805e+00  -1.092252e+00  -9.018434e-01  3.526382e+00  -3.471664e+00  5.182591e-01  3.854073e-01  7.548875e-01  -2.000612e+00  -1.725744e+00  -1.085392e+00  9.682657e-01  1.790249e+00  -5.215123e+00  -4.585605e-01  -4.064529e-01  4.794146e+00  2.923657e-01  -1.244570e+00  1.746778e+00  1.128571e+00  4.988796e-02  -6.194569e+00  -8.331882e-01  -1.759910e-01  -1.520864e+00  2.151280e-01  3.290831e-01  1.883172e+00  -6.514896e-02  2.295552e-01  -2.857378e+00  -5.636599e-01  -4.973972e-01  -1.566371e+00  -4.744360e-01  5.871350e-01  2.074176e+00  -6.923544e-01  3.771610e+00  2.208394e+00  -1.439266e+00  -4.542432e-01  5.281686e-02  -2.013559e+00  -1.430285e+00  1.558592e-01  -3.187168e-02  -1.174797e+00  -1.996165e-01  3.307554e+00  -2.077886e+00  7.489291e-01  1.077792e+00  -9.286001e-04  -1.522332e+00  -8.585269e-01  -4.260894e+00  5.661646e-01  5.535070e+00  -1.771363e+00  -4.885897e+00  -1.963789e-01  8.028139e-01  3.505222e+00  -3.870275e+00  1.125482e-02  1.850910e+00  1.010872e+00  1.920929e+00  4.235818e-01  4.392676e-01  1.855609e-01  9.373886e-01  5.885384e+00  -2.322688e-02  -2.138863e+00  3.570339e+00  -3.049676e+00  -5.322157e-01  1.101929e+00  1.160288e+00  -7.418221e-01  -2.051537e+00  1.635481e-01  -6.799771e-01  6.903032e-02  -4.481041e-01  2.671264e-01  7.713391e-01  1.897607e-01  -1.244206e+00  -9.340011e-01  3.356138e-01  -5.388474e-01  1.879555e-01  9.737557e-01  -2.110445e+00  -7.298328e-01  2.375456e-02  -5.882911e-01  1.090231e+00  2.722204e-01  9.598715e-01  1.834970e+00  1.851965e+00  1.764857e+00  -3.365504e-01  -1.207458e+00  -3.683307e-01  -1.886334e-01  4.493948e-01  3.396139e-01  4.568592e-01  -5.556495e-01  -1.690655e+00  -6.516674e-01  -7.593161e-01  2.037182e+00  -3.383407e+00  -2.075741e+00  -1.870641e-01  1.176177e+00  -1.366429e+00  4.671759e+00  4.432779e-01  7.231952e-01  -2.304725e-01  -5.910265e-02  -1.124802e+00  -1.778195e-01  -1.887731e+00  -8.516155e-01  -3.104572e+00  5.371609e-01  3.560717e+00  2.388418e+00  -8.530341e-01  3.890914e-01  1.989603e+00  -6.733085e-01  2.344640e-01  -1.694277e+00  -1.902038e+00  4.023518e-01  -1.533117e+00  -3.494783e+00  -1.023348e+00  -7.784226e-01  -2.672589e+00  5.211523e-01  2.098412e+00  -1.528793e+00  2.040428e+00  1.510937e+00  -7.617710e-01  -8.455829e-01  -1.263152e+00  -1.623608e+00  -4.044541e-01  -7.068003e-01  3.689127e-01  1.119486e+00  2.351168e+00  -9.925172e-02  -2.091394e+00  8.467813e-01  -9.675918e-01  -1.588123e+00  1.722105e+00  1.905700e+00  -9.103552e-01  -9.708693e-01  1.789538e+00  1.944790e+00  1.507882e+00  -5.685345e-01  7.706241e-01  1.451790e+00  -8.663890e-01  -1.313075e+00  -1.025151e+00  -2.009365e+00  -6.284335e-02  2.326420e+00  -6.035078e-01  -5.310449e-01  -4.228457e-01  1.450474e+00  1.028813e+00  1.518965e+00  1.814701e+00  -7.765058e-01  7.852790e-01  2.293460e+00  7.567832e-01  -1.364104e+00  -1.089818e+00  1.055379e+00  1.074650e+00  -5.350970e-02  -2.063713e+00  -2.517417e-02  1.691696e+00  1.754808e+00  3.950222e-01  7.596065e-01  -2.417069e+00  -7.037836e-01  -1.023811e+00  6.280642e-01  -3.788350e-01  -2.385359e+00  -7.967015e-01  1.595530e+00  2.187490e+00  -2.527044e+00  2.068202e+00  2.877278e+00  2.119275e+00  -1.071640e+00  1.766269e+00  1.250335e+00  8.203589e-01  -1.679413e+00  -5.381647e-01  -1.414025e+00  -2.406817e+00  6.733093e-01  1.777113e+00  -2.457041e+00  -9.916179e-01  -2.791856e-01  1.272840e+00  -2.489267e+00  -2.149643e+00  8.249551e-01  2.623029e+00  1.346587e+00  -1.760848e+00  1.913605e+00  -2.815648e-01  9.079769e-01  2.867391e+00  -1.395060e+00  1.002009e+00  -2.748379e+00  -1.287574e+00  -1.999984e+00  -9.097077e-01  1.572894e+00  -8.979952e-01  -9.862710e-01  -2.005732e+00  -1.813435e+00  2.507154e+00  -3.257949e-02  2.442385e+00  2.575409e+00  2.351168e+00  -7.747480e-01  1.757656e+00  -1.754529e+00  -4.049065e-01  -2.079556e+00  -6.278372e-01  -1.811471e+00  -3.834442e+00  -2.277647e+00  3.376071e+00  -3.842626e-01  2.667285e+00  -1.314267e+00  1.121084e+00  1.872454e+00  2.641464e-01  4.888894e-01  1.355431e+00  1.787705e+00  -1.884558e+00  -3.072734e-01  2.897640e+00  -4.716652e-01  5.509613e-03  1.849908e+00  1.995181e+00  6.799427e-01  1.782092e+00  -2.102377e+00  9.583711e-02  2.237218e+00  -1.399881e+00  -1.568123e+00  -1.172579e+00  -8.812388e-01  -1.745780e+00  -5.723186e-01  7.934790e-01  4.567132e-01  -3.095890e-01  3.395880e+00  -2.462804e+00  -2.630424e+00  -6.256686e-01  -7.673588e-01  -2.687226e+00  -3.520026e+00  1.522916e+00  4.567839e-01  -1.840837e-01  1.257954e+00  -1.173699e+00  -4.161498e-01  3.043770e+00  2.656274e-01  -7.246065e-01  4.211704e-01  2.633710e+00  -2.166060e-01  -3.752991e+00  -1.591303e+00  -3.759496e-01  -2.492690e+00  -3.681465e+00  1.239400e+00  -1.577037e-01  -7.643145e-01  -1.828855e+00  1.911552e+00  -8.484863e-01  -2.290260e+00  8.593601e-02  2.693412e+00  -9.550572e-01  -3.647266e-01  1.139647e+00  1.578125e-01  7.619039e-01  1.294989e-01  -2.162854e+00  2.097079e+00  1.214152e+00  2.762102e-01  -2.350860e+00  1.277798e+00  -2.023529e+00  7.624310e-02  -2.541230e+00  -1.046572e+00  1.113850e-01  -2.949236e-01  -1.500664e-01  3.966720e-01  1.899360e+00  3.357396e-02  2.860079e+00  -2.767440e-01  -8.249664e-01  4.624364e+00  1.537486e+00  3.366333e-01  -2.431830e-01  -2.163979e+00  -3.819337e-01  -4.825951e-01  2.101373e-01  -2.101010e-01  3.724681e-01  -2.022963e+00  -7.613750e-01  -2.320201e+00  3.311209e+00  1.710975e+00  -1.272274e+00  -5.966233e-01  8.240935e-01  -1.622268e-01  1.408433e+00  -5.741900e-01  4.858059e-01  -2.010257e+00  7.695268e-01  2.985301e+00  -2.877355e+00  -6.609133e-01  -1.784682e+00  -2.383457e+00  3.676456e+00  -8.546204e-01  1.624565e+00  3.143529e-01  7.239178e-01  -3.939012e-01  -1.508468e+00  -6.209752e-02  1.310413e+00  -6.425955e-01  -3.673842e+00  -5.250467e-01  6.037129e-01  3.026254e+00  -2.658145e+00  -5.842246e-01  -5.589377e-01  1.167465e+00  5.935808e-01  -3.213310e+00  3.407266e-01  -7.166624e-01  2.564589e+00  4.146444e-01  -5.909465e-03  2.501086e+00  1.028003e+00  -1.180987e-01  -1.635964e+00  -1.124583e+00  -1.180020e+00  4.019141e-01  -6.246493e-01  9.988723e-01  -1.679179e+00  -1.571258e+00  1.580297e+00  2.389867e+00  2.488377e+00  -4.740578e-01  5.538014e-01  -4.303245e+00  8.433039e-01  2.199341e+00  -2.517996e+00  -1.945162e-01  -1.734997e+00  2.618726e+00  -1.550914e+00  -4.005454e-01  -1.109229e+00  -1.387590e+00  -9.448590e-01  -2.248074e-01  -3.457888e+00  2.204183e+00  2.015865e+00  1.580702e+00  -1.656551e+00  1.039379e+00  1.364721e+00  9.879377e-01  -1.277154e+00  -1.451184e-02  1.806505e+00  -6.256529e-01  -3.942868e+00  -4.431977e-01  7.571609e-01  -8.067853e-01  1.854129e+00  1.970951e+00  3.076698e-01  2.185104e+00  5.389947e-02  9.821422e-01  -1.522717e+00  4.763899e-01  -2.358367e+00  2.386734e+00  -1.194679e+00  3.942864e-01  -1.972692e+00  2.371952e+00  5.402796e-01  5.029842e-01  2.020785e+00  1.775934e+00  -1.962592e-01  5.324682e-01  4.924045e-01  -1.823823e+00  1.113995e+00  2.921663e-01  -4.384559e-01  1.297403e-01  1.295013e+00  1.567973e+00  1.657315e+00  -1.817128e+00  -2.924783e+00  7.106173e-01  3.051889e+00  -1.212474e+00  -8.698870e-01  -1.934202e+00  9.486188e-01  -1.853105e+00  -3.888752e-01  8.948308e-01  2.646083e-01  -5.254098e-01  1.670637e+00  2.137986e+00  2.104810e+00  1.297251e-03  -1.257939e+00  5.360825e-01  -5.581465e+00  3.997371e-01  -6.925909e-01  1.890117e+00  -1.803118e+00  -8.753261e-01  9.180444e-01  1.592348e+00  -1.061918e+00  -9.164527e-01  1.203886e+00  -1.237621e-01  -1.565256e+00  3.409263e-02  -2.236505e-01  4.935446e-01  -7.501320e-02  -1.532613e+00  -1.520905e+00  -3.289204e+00  3.528502e+00  -6.845289e-01  3.734700e-01  -1.407669e+00  -2.747683e+00  1.539710e+00  -3.789725e-02  2.265353e-01  2.582177e+00  4.201912e+00  -3.280859e-01  5.492889e-01  5.626388e-01  5.630369e-01  -2.408531e+00  1.843497e+00  4.200486e-01  3.209032e-01  -1.189009e+00  -2.523257e+00  -2.669383e+00  3.856151e+00  -1.291358e-01  -4.284150e-01  -2.073040e+00  -1.425458e+00  -3.827881e-01  -2.904631e-01  1.900062e+00  7.403812e-01  -1.442670e+00  1.423348e+00  -4.733415e-01  5.049135e-01  -2.213892e+00  3.145605e-01  1.446495e-01  -3.308247e+00  -1.169605e+00  -1.595431e+00  -1.173343e+00  -1.126572e-01  4.364505e-01  -9.587257e-03  4.524074e+00  1.982650e+00  -4.950275e+00  3.748473e-01  6.399621e+00  3.709919e+00  -1.131667e+00  -2.130736e-01  3.217905e+00  -5.924091e-01  -3.463322e+00  -1.367912e+00  -6.729418e-01  -1.380360e+00  -1.376023e+00  -1.789467e+00  -7.236114e-01  -3.379346e+00  3.949137e-01  8.125940e-01  -1.347024e+00  3.124500e-01  -1.363450e+00  2.300170e+00  -2.471942e+00  -3.279303e-01  -1.743004e+00  2.195052e+00  -8.520189e-01  -6.041837e-01  -6.713517e-01  5.186700e-01  -1.864364e-01  7.498685e-01  -1.257463e-01  -3.649078e-01  8.459416e-03  -1.524908e+00  1.861414e+00  -1.414392e-01  3.594493e-01  2.516621e-01  1.113512e+00  3.179110e+00  -1.143206e+00  7.056443e-01  -3.689675e+00  -2.653265e+00  -9.696728e-01  -7.065760e-01  8.489475e-01  -3.179181e+00  9.485145e-01  2.049343e-01  2.556989e-01  -5.560912e-01  -2.498105e+00  -6.556754e-01  5.079114e-01  1.692154e+00  3.737578e+00  -2.336115e+00  -1.299694e+00  3.157244e+00  -1.480573e+00  3.791019e-01  9.712207e-01  -1.302137e+00  7.335448e-02  1.295989e+00  2.160963e-01  3.351934e+00  -3.489558e-01  -8.856955e-01  1.521052e+00  9.669665e-01  2.949296e-01  -1.139532e+00  -2.029833e+00  -4.374948e-01  1.298071e+00  -1.416523e+00  -3.664300e+00  1.101501e-02  1.576229e+00  -4.531680e-01  1.858238e+00  -2.581830e-01  5.197677e-01  1.672948e+00  3.072388e+00  1.821437e+00  3.434949e+00  6.167106e-01  -1.807073e+00  2.348792e+00  -7.258376e-01  1.186717e-01  -7.514684e-01  1.474025e+00  9.878533e-01  6.336455e-01  4.013816e-01  1.325624e-01  4.377491e-01  6.704955e-01  -6.939075e-01  -1.883697e+00  6.910509e-01  -1.829838e+00  1.956400e-01  -3.026630e-01  -2.584061e-01  1.374871e+00  -1.457449e+00  4.432575e+00  -1.656034e+00  1.866271e-01  -3.270285e+00  -9.587927e-01  -7.344701e-01  -1.775171e+00  2.155979e+00  4.653360e-01  -7.000406e-01  9.933551e-01  -2.027572e+00  -2.879306e-01  2.325195e+00  -8.865266e-01  4.192745e-01  -3.336764e+00  1.061680e+00  -3.681753e-01  -2.693452e+00  4.894249e-01  -2.958138e-01  -8.743717e-01  -3.334340e+00  2.923467e+00  2.525943e-01  -1.189758e+00  -3.405476e+00  -9.697612e-02  -1.239271e+00  -1.235906e+00  5.986452e-01  8.454373e-01  6.494906e-01  7.955647e-01  3.205364e-01  1.483426e+00  -1.784595e+00  -4.522293e-01  -6.681266e-01  3.892142e+00  -9.407725e-01  -1.220551e+00  -1.370067e+00  1.026883e+00  -4.422137e-01  9.207621e-01  -1.957613e+00  1.319872e-01  3.095907e-01  -1.587400e+00  1.607513e+00  4.087071e-01  8.756635e-01  -4.300030e-01  1.252399e+00  2.331620e+00  8.030232e-01  3.470701e+00  -8.484571e-02  -3.568227e+00  -2.475124e+00  -1.473868e+00  5.908007e-01  -2.371730e-01  1.184237e+00  3.822567e-01  5.870560e-01  -9.244352e-01  -5.240160e-01  -2.780567e+00  -1.173583e-01  3.900047e+00  1.530575e+00  2.175202e+00  -9.244611e-01  2.236003e+00  1.051958e+00  6.832981e-01  -1.429332e+00  9.993539e-01  8.932453e-01  1.202448e+00  -1.866948e+00  1.088075e+00  -1.734881e+00  -1.253084e+00  4.337423e-01  9.297318e-01  1.014555e+00  -6.782446e-01  6.325111e-01  -2.063532e+00  2.253261e-02  -6.270453e-02  7.876436e-01  6.424147e-01  -3.896529e-01  -3.529237e-01  2.117186e+00  3.008875e+00  -2.369595e+00  -1.314819e+00  3.196195e+00  -2.908593e-01  2.149344e+00  -1.535256e+00  -4.658289e-01  4.680691e-01  -1.413118e+00  1.274267e+00  -7.855046e-01  3.561803e+00  2.253125e+00  1.419344e-01  -2.987590e+00  -2.769284e+00  -2.801309e+00  5.214126e-01  -1.442318e+00  1.173480e+00  1.201925e+00  4.834135e-01  2.450927e+00  3.526174e+00  -7.745159e-01  -9.794524e-01  -2.031822e+00  -6.862314e-01  -1.810375e+00  2.528000e-01  -1.374341e+00  5.358981e-01  -3.671983e-01  1.185606e+00  -2.618481e+00  -7.654761e-03  -4.492973e-01  -3.477480e-01  -6.933571e-01  -2.302964e+00  -9.469442e-01  3.588056e+00  6.593378e-01  -2.261206e+00  -9.876825e-01  1.518981e+00  1.074259e+00  2.062458e+00  -1.209888e+00  -6.066180e-01  1.196565e+00  -1.292030e+00  2.184048e+00  1.844483e-01  -1.402825e+00  -1.790003e+00  8.192362e-01  1.964328e-01  -3.617154e-01  -1.287201e+00  2.282150e+00  -4.583044e-01  3.242950e-01  1.966869e+00  -1.268039e+00  -1.787090e+00  -9.777541e-02  -1.640625e-01  4.122135e-01  -2.624762e+00  -1.562030e+00  7.432169e-01  3.346710e-01  5.578268e-01  -7.949930e-01  1.564558e+00  -2.840367e-01  1.208336e+00  4.994976e-01  9.730557e-02  -6.011264e-01  6.029273e-01  1.153037e+00  -1.460996e-01  -7.862775e-01  -1.264400e+00  -1.100984e+00  1.154035e+00  -1.116027e+00  2.692901e-02  1.695251e+00  -2.133936e+00  1.496664e+00  -7.623020e-01  7.196307e-01  4.289888e-02  -1.464038e+00  1.437261e+00  -7.269287e-01  -6.856736e-01  6.144770e-01  3.785820e-01  -5.397512e+00  8.674005e-01  9.319649e-01  4.247169e-01  -3.370722e-02  2.497822e+00  6.531807e-01  3.990832e+00  9.060761e-01  2.373422e+00  -1.418820e+00  -9.987127e-01  -1.458808e+00  4.626352e-01  -1.162542e+00  2.937460e+00  8.027005e-01  1.050170e+00  3.107487e-01  -1.372162e-01  2.788419e+00  -2.385938e+00  -2.202448e+00  -1.107936e+00  -2.950852e+00  6.406248e-01  -1.263320e+00  -1.241257e+00  2.602864e-01  1.985668e-01  -1.261204e+00  -9.638101e-01  1.523983e+00  5.732536e-01  1.008423e+00  2.135293e-01  5.089395e-02  -9.568275e-02  -2.212999e+00  -1.664164e+00  -1.371290e+00  -3.764460e-01  -3.489003e-01  3.067560e+00  4.408995e+00  1.630473e+00  -1.962531e+00  -2.582010e-01  1.657692e+00  1.867765e-01  2.939790e+00  -8.656648e-01  4.999146e-01  -3.354819e+00  -1.542155e+00  1.846125e+00  2.159446e-01  -2.115209e+00  1.468684e+00  1.515566e+00  -1.831510e+00  -2.358170e-01  -4.867409e-01  -2.395946e+00  -1.017478e-01  5.275706e-01  -4.030119e-01  2.706386e+00  -4.635700e-02  -1.177703e-01  2.836524e-01  3.457767e+00  4.901177e-01  1.636690e+00  8.864524e-01  2.413919e+00  1.283609e+00  -1.931337e+00  -1.750367e+00  1.442402e+00  -3.666324e-01  -7.561061e-01  7.242145e-01  7.400959e-01  1.011804e+00  1.846733e+00  6.983340e-01  -1.118648e+00  -2.360877e+00  7.481637e-01  3.637103e-01  -6.371277e-01  -1.891951e+00  -1.279378e+00  -1.380995e+00  2.431184e-01  3.854688e-01  -4.620887e+00  1.607401e+00  9.142584e-01  3.861379e+00  -2.896125e+00  7.981061e-01  -3.119422e-01  1.151909e+00  -1.788066e+00  -1.076145e+00  1.633123e-01  -3.009650e+00  2.199224e-01  1.637923e+00  -1.955555e+00  -5.438316e-01  -5.003071e-01  1.750636e-01  -1.715107e+00  -1.099095e+00  -1.218573e+00  3.232584e-01  9.669709e-01  -2.495420e+00  2.342638e+00  3.289298e-01  -2.469318e-01  1.817677e+00  4.591306e-01  3.473967e-01  -5.848097e-01  5.936470e-02  -1.088722e+00  -2.494756e+00  1.377958e+00  2.749604e-01  1.788077e+00  -5.988269e-01  8.075456e-03  1.616544e+00  -4.708743e-01  2.604514e+00  5.536506e+00  2.008937e+00  1.499263e+00  -1.690888e+00  -8.613408e-01  1.277209e+00  2.111600e-01  -5.905043e-01  1.820482e-01  7.942953e-01  -2.502951e-01  -2.260301e+00  1.382151e-01  -5.549487e+00  1.054385e+00  1.063727e+00  -1.403794e-01  -1.093925e+00  -2.603575e+00  -2.656469e+00  -1.592627e+00  2.287337e+00  -1.075964e+00  1.971517e-01  2.818039e-01  1.435647e+00  -2.713351e+00  -3.965463e+00  -1.343282e+00  1.024115e+00  1.468946e-01  1.133368e+00  -3.809476e-01  4.462473e+00  1.921224e+00  3.969918e-01  2.192654e+00  5.243740e-01  8.270714e-01  -8.791879e-01  -8.542606e-01  2.910383e-01  -9.863047e-01  3.593017e+00  -1.071025e+00  3.161444e+00  3.152020e+00  1.736476e+00  1.438478e+00  4.533595e-01  -1.567113e-01  6.572711e-01  -5.498052e-02  1.816496e+00  -1.095213e+00  -2.251925e+00  -1.315577e+00  1.830396e+00  1.513402e+00  -1.101106e+00  -9.887889e-01  1.498276e+00  5.524055e-01  -1.885700e+00  4.134467e+00  1.162537e+00  2.044788e-04  -5.981097e-01  2.438762e+00  1.940699e+00  8.500531e-01  9.928164e-03  1.638964e+00  7.393276e-01  1.220829e+00  -1.043516e+00  -2.966491e-01  1.705111e+00  -3.300352e-01  1.294549e+00  1.622073e+00  2.877986e+00  -5.170374e-01  1.931283e-03  4.811960e-01  3.472480e-01  -4.042200e+00  1.026231e+00  -6.991282e-01  1.582786e+00  -9.272618e-01  9.277092e-01  2.125896e+00  -1.716291e+00  -2.202721e+00  9.158268e-02  -2.236341e+00  -4.700641e+00  -1.534148e+00  -5.418863e-01  -9.883916e-01  2.258891e+00  2.010217e+00  5.628225e-01  1.029207e+00  -1.196530e+00  1.003016e+00  -1.567320e+00  1.020231e+00  -2.405074e+00  2.720757e+00  -9.889738e-02  4.197813e-01  -8.523433e-02  -2.807427e+00  -1.775499e+00  3.915457e-01  1.890835e+00  -4.649259e-01  1.265513e+00  -6.636239e-01  1.392850e+00  6.129873e-01  -9.322029e-01  -1.536958e+00  1.707474e-01  -2.508872e+00  2.058479e+00  4.117383e+00  1.029668e+00  -6.540571e-01  -6.761525e-01  -8.313031e-02  1.056602e+00  1.341741e-01  6.190041e-01  -8.941263e-01  4.167572e-01  -1.336784e+00  6.852334e-02  1.160811e+00  -1.401324e+00  -4.012312e-01  -1.227175e+00  -2.984131e+00  -9.600835e-01  1.492554e+00  -3.398679e+00  5.454099e-01  1.243885e-02  -2.030517e+00  1.217945e+00  -1.647073e+00  3.286866e+00  -3.525554e+00  -9.984927e-01  5.261348e-01  -1.410435e+00  2.912415e+00  -1.147289e-02  1.568918e-01  1.345312e+00  1.721555e+00  1.696968e-01  -3.993606e-02  -1.202259e+00  -3.248224e-01  -4.436405e-02  -9.260586e-03  2.101364e+00  -1.119032e+00  6.653947e-01  -2.515934e-01  2.116682e+00  -5.927130e-01  6.775302e-01  -2.791582e-01  -2.636616e+00  4.681472e-01  1.254306e-01  4.846828e-01  3.107555e+00  8.925286e-01  1.171579e-01  -9.454413e-01  -1.027968e+00  2.836975e-01  1.294561e+00  1.396450e+00  1.447883e+00  -1.401608e+00  1.083165e+00  7.011957e-01  -1.909153e-01  -1.615618e+00  -1.511255e+00  -4.715487e-01  2.997174e+00  2.536510e+00  -1.462756e+00  -9.312544e-01  1.738188e-01  -3.889855e-03  6.518647e-01  -8.243343e-02  -4.854157e-01  -3.003022e+00  -4.405764e-01  1.032779e+00  -9.829197e-02  -2.026678e+00  1.974640e+00  1.574276e+00  3.392677e+00  -7.938235e-01  -1.186571e+00  -1.320007e+00  9.094165e-01  -2.689096e+00  -2.278475e-02  -2.556724e-01  -2.968850e+00  8.241307e-02  -1.341937e+00  3.779294e-01  -1.609243e+00  -1.575597e-01  -1.806150e+00  -9.812756e-01  -9.342834e-01  1.568619e+00  1.784555e+00  1.016793e-01  3.244564e-01  1.210948e+00  -6.236845e-01  -1.409572e+00  -3.813772e-01  6.803600e-01  2.549888e+00  6.436365e-01  6.186268e-01  -1.839733e+00  9.908817e-01  -1.164127e+00  1.545200e+00  -2.302093e+00  -7.841258e-01  -1.424745e+00  2.290235e+00  -1.768873e+00  8.013856e-01  -4.533142e+00  3.241308e+00  -9.753318e-01  6.286002e-01  1.786173e+00  8.805879e-01  -1.136274e+00  1.258820e+00  -2.185997e+00  -1.802670e-01  1.958784e+00  5.700619e-01  1.172209e+00  3.126867e+00  2.486472e+00  -1.827455e+00  -1.001351e+00  -2.179553e+00  2.013752e+00  -1.609471e-01  -1.224925e+00  1.690224e+00  -3.025112e+00  -2.278420e-01  -1.756511e+00  -1.846095e-01  3.942627e-01  -1.474417e+00  3.157631e+00  7.083871e-01  5.063794e-01  -1.856125e+00  -2.404068e+00  -3.786842e-01  -1.768366e+00  5.728370e-01  -2.401906e+00  7.882655e-01  -9.625020e-03  6.904342e-01  3.519096e+00  8.104778e-03  6.999691e-01  -4.419431e-03  7.771118e-01  -2.711128e-01  -1.201507e+00  -1.466774e+00  -3.276011e-01  5.305859e-01  4.366669e-01  1.637218e+00  3.608015e+00  -1.859732e-01  -9.517255e-01  -3.052553e-01  -1.582317e+00  -2.456416e+00  3.074150e-01  -2.849866e+00  -1.143237e+00  1.853121e+00  -1.108993e+00  -2.963838e+00  -1.298199e+00  9.632996e-01  4.227202e-01  -2.469647e+00  2.523899e+00  3.036538e+00  -6.288889e-03  -8.999290e-01  3.548337e+00  -6.625254e-01  -1.952579e+00  -7.588041e-01  3.037940e+00  1.042658e+00  -3.507072e-01  -6.971197e-01  -1.570438e+00  -1.021037e+00  -1.008385e-01  2.361181e-01  -3.577514e-01  -3.263910e-01  -5.818821e-01  -1.177345e+00  -1.763200e+00  4.715098e-01  -2.246998e+00  2.978517e+00  -3.629962e-01  9.279216e-01  -6.793227e-01  1.535930e+00  2.925141e+00  -3.308270e-01  -1.168242e+00  1.264234e+00  -2.503666e+00  -2.795936e+00  -1.067855e+00  2.429448e+00  -1.258833e+00  1.835639e-01  1.425994e+00  -5.293761e-01  8.979086e-01  -1.105035e+00  8.109499e-01  5.044710e-03  2.483186e+00  -2.037622e+00  2.994455e+00  -4.632882e-01  2.225106e+00  -9.368030e-01  -1.714516e+00  -9.226109e-01  2.037433e+00  -1.506567e+00  -8.028205e-01  -1.925860e-01  1.818813e+00  -3.295516e+00  6.213732e-01  -1.793895e-01  -1.043926e+00  3.562491e-01  -1.002834e+00  -5.067574e-01  2.290635e+00  -7.262728e-01  -1.297025e-01  -4.784141e-01  -5.158724e-01  1.407715e+00  -1.063237e+00  -2.486132e+00  -1.061769e+00  1.493027e+00  -2.827152e+00  -3.427126e-01  -2.125795e+00  -1.346945e+00  -1.042358e+00  -2.884454e+00  -8.883256e-01  1.857435e-01  -1.037353e+00  1.328949e+00  1.643841e+00  1.142141e+00  -1.028191e+00  8.205482e-01  1.928770e+00  -7.861682e-01  1.706098e+00  -1.666782e+00  -1.867468e+00  -1.457227e+00  -6.097498e-01  -3.231253e+00  2.835550e+00  1.383194e+00  1.212567e+00  -9.063542e-01  1.921922e+00  -3.963205e-01  3.019471e-01  1.279697e+00  1.276770e+00  -8.178200e-01  -1.019449e+00  -2.850906e-01  1.469131e+00  -2.138411e+00  -4.037720e-01  1.680002e+00  7.080695e-01  -1.488880e+00  -9.714150e-01  2.513422e-01  -3.836473e-01  1.670224e+00  -2.473148e-01  5.777650e-01  1.961946e+00  -2.048785e+00  1.021967e+00  2.125756e+00  2.841873e+00  1.108394e+00  1.526999e-01  2.651644e+00  1.961502e+00  3.241223e-01  -1.681118e+00  -1.176168e+00  2.419257e+00  8.135922e-01  -1.393310e+00  -1.525268e+00  -1.773323e+00  1.647252e+00  4.907065e-01  2.456151e-02  1.232711e+00  -2.088527e+00  8.931305e-01  -3.051780e+00  1.120422e+00  -4.458458e-01  4.421742e-01  -4.019634e-01  2.105458e+00  9.547176e-01  -1.647391e+00  1.391647e+00  2.501139e+00  8.643146e-01  1.464842e-01  1.558176e+00  2.128746e+00  8.660926e-01  -1.232378e+00  8.661240e-02  -4.908070e-01  -1.516475e+00  2.523494e+00  7.140525e-01  -1.701663e+00  -3.233458e+00  -1.415497e-01  8.095663e-01  5.481902e-01  1.743457e-01  -2.256699e+00  1.237724e+00  1.333085e+00  -2.064710e+00  2.886393e+00  -4.855395e-01  -2.706764e-01  2.930540e-01  3.508769e-01  2.777603e+00  -2.005416e+00  -1.629496e-01  -6.497706e-01  -7.906970e-01  1.651987e+00  4.682127e-01  -4.798322e-01  5.282742e-01  1.709638e+00  1.453567e+00  2.648098e+00  7.971813e-01  1.323470e+00  9.017208e-01  3.232020e-01  -6.996840e-01  -1.720488e+00  -6.712506e-01  1.142368e+00  5.839133e-01  2.514843e+00  2.398992e+00  4.488038e-02  -5.731648e-01  -9.839164e-02  -5.545590e-01  -4.942631e-01  7.224829e-01  -1.060516e+00  -6.270890e-01  7.358678e-01  -6.278478e-01  -1.486366e-02  1.770303e+00  -8.393630e-01  7.422359e-01  1.602048e+00  1.044806e+00  -6.261739e-01  -1.117160e-01  -2.629878e+00  -7.441599e-02  -2.045733e-02  -1.767963e+00  5.191575e-01  6.755330e-01  -1.238920e+00  -6.394789e-01  -7.308685e-01  -6.465599e-01  -2.844900e+00  6.119860e-01  2.073056e+00  1.291303e+00  -3.302380e+00  -6.503648e-02  2.136747e+00  1.797032e+00  -2.388767e-01  7.226170e-01  7.692533e-01  5.367121e-01  -2.342379e+00  -2.395774e+00  -2.963514e+00  5.246152e-01  3.033483e+00  1.765339e-01  9.217836e-01  -9.519762e-01  1.387972e+00  -7.047126e-01  1.124477e+00  1.541163e+00  -9.337103e-01  2.777746e+00  1.433331e+00  2.862323e+00  -1.818860e+00  -9.570032e-01  6.606153e-01  -3.136771e-01  -6.357733e-01  -1.386007e+00  -8.512185e-01  2.056311e+00  1.101201e-01  -8.172636e-01  1.179581e+00  -2.862716e+00  4.404304e-01  1.767875e+00  -3.488951e+00  -1.003229e+00  -2.295995e+00  -2.565588e-01  1.414083e+00  -1.554048e-01  -1.695678e+00  4.075981e+00  -1.837564e+00  2.535664e+00  -7.506109e-01  2.232022e+00  -6.859024e-01  -6.193158e-01  -2.046257e+00  1.754195e+00  8.102635e-01  -1.414482e+00  -2.256630e+00  1.365045e-01  -1.970058e+00  4.547670e-01  9.368694e-01  9.003057e-01  -5.056259e-01  -1.302258e+00  -1.282713e+00  -1.396324e+00  6.035208e-01  -1.786229e+00  1.846958e+00  1.321094e-01  9.519899e-01  1.564396e-01  -1.724791e+00  -1.812536e+00  -2.633452e+00  -1.478425e+00  -2.744890e+00  -1.768755e+00  2.277061e+00  -9.404981e-01  -6.232368e-01  -2.407429e+00  -8.386236e-01  1.940324e+00  6.211863e-01  1.963131e+00  1.600839e+00  1.199668e+00  6.889585e-01  5.245500e-01  -1.176714e+00  -1.572491e+00  -4.928159e-01  -7.316864e-02  -3.476363e+00  -9.907278e-02  1.358162e+00  -6.981185e-01  2.252431e+00  1.695324e+00  5.584829e-01  -3.903934e-01  2.986913e+00  2.143438e+00  9.043551e-01  2.325357e+00  -2.729764e-01  -1.459612e+00  1.128216e+00  -8.208093e-01  -7.997750e-01  5.224860e-01  8.089491e-01  1.227626e+00  1.209675e+00  4.128109e-02  -1.167966e+00  8.099029e-01  -1.605803e+00  -1.483173e+00  1.067107e+00  1.151230e+00  -6.497675e-01  1.125671e+00  2.199113e+00  -2.332438e+00  -1.194719e+00  7.237971e-01  5.079532e-01  -1.059205e+00  -2.648154e+00  -3.192776e+00  -9.669539e-01  -1.126920e+00  8.386211e-01  8.268319e-01  1.336983e+00  2.444267e+00  1.779781e+00  -7.152672e-01  -3.489387e+00  -6.869076e-01  1.171125e+00  9.758595e-01  -8.660474e-01  -1.273141e+00  -1.602870e+00  -2.463350e+00  1.084455e+00  -2.786104e+00  -1.959406e+00  -5.900174e-01  1.796061e+00  -1.838128e-01  -9.820182e-01  -8.969197e-01  -4.316955e-01  1.628919e+00  2.296848e+00  -1.136434e+00  1.750907e-01  -3.777264e-01  -2.572710e+00  3.169287e+00  -2.480502e-01  -6.474911e-02  5.508916e-01  1.176942e+00  2.050571e+00  9.586641e-01  -1.549971e+00  -1.912915e+00  2.003235e+00  -2.125998e+00  -1.366413e+00  -2.518810e+00  2.959192e-01  -1.126714e+00  -2.896545e-02  -1.832332e-02  1.967214e+00  -2.311168e-01  -1.273823e+00  1.049814e+00  1.198523e+00  -1.324926e+00  1.714367e+00  -5.526580e-01  -8.522055e-01  -6.262521e-01  5.155732e-01  -4.771336e-02  5.822144e-01  -1.571286e+00  -9.175082e-01  1.747086e+00  -1.925290e+00  -1.040754e+00  -9.723147e-01  -1.874342e-01  1.195090e+00  5.896092e-01  2.363515e+00  4.574811e-01  3.010423e+00  6.785101e-01  -6.580524e-01  1.723855e-01  8.288895e-01  2.701913e+00  2.658105e+00  -2.439361e+00  1.918020e-02  -3.134669e+00  -2.171949e+00  -8.859820e-01  -5.249692e-01  -2.277357e+00  1.410485e+00  3.402644e+00  6.269339e-01  8.050988e-01  5.143851e-02  2.447354e+00  2.020808e+00  -2.419241e+00  -1.485112e+00  -2.550604e+00  1.195848e+00  4.600502e-01  -5.310448e-01  -6.334369e-01  -1.690867e+00  -1.967618e+00  -2.679808e+00  1.091332e+00  -8.777415e-02  6.256704e-01  -4.300248e-02  5.383332e-02  -9.787405e-01  -1.863591e+00  -1.975856e+00  1.763791e+00  7.570574e-01  1.933757e+00  -2.874169e+00  2.507705e+00  1.230910e-01  3.315631e-01  3.400618e+00  -7.989151e-01  -8.156900e-02  1.688583e-01  9.305843e-02  -4.913836e-01  -1.701255e+00  1.750120e-01  1.845029e+00  1.242776e+00  -1.873541e-01  1.057611e+00  3.259842e+00  1.046544e+00  1.281426e+00  1.697552e+00  -2.449601e-01  -7.630301e-01  -4.411013e-01  -3.203803e+00  -3.416229e+00  3.224712e+00  1.052895e-01  -3.788310e+00  -2.029488e+00  2.025242e+00  4.183214e-01  -2.481780e+00  2.906252e+00  1.069546e+00  1.385387e+00  -9.276075e-01  3.595294e+00  5.599360e-01  9.288559e-02  -3.394519e-01  3.440840e+00  1.672019e+00  8.811678e-01  4.420807e-01  -2.394847e+00  -9.059538e-02  -1.348707e+00  7.304132e-01  1.036839e+00  -5.367626e-01  -1.671908e+00  -1.014381e+00  1.147309e+00  3.731340e-01  -2.981681e+00  1.848550e+00  1.501873e+00  1.676710e+00  -5.390486e-01  1.325176e+00  2.811201e+00  1.167126e+00  -1.271997e+00  -2.536266e-01  -1.655898e+00  -2.875623e+00  -5.252475e-01  1.955888e+00  -2.219368e+00  -2.323518e-01  -3.861986e-01  1.184341e+00  5.270265e-01  -1.847413e+00  3.323389e+00  1.695094e+00  3.386924e-01  -2.860996e+00  3.528080e+00  -2.320275e-01  1.929590e+00  -7.646044e-02  -6.761647e-01  -7.336638e-01  5.895981e-01  9.649001e-01  -1.142488e+00  -1.339309e-01  1.111425e+00  -1.103698e+00  -3.000857e-01  6.421446e-01  -1.700370e+00  2.274320e-01  -1.321557e+00  1.424559e+00  3.766644e+00  2.970606e-01  -1.023305e+00  -4.866427e-01  -8.834628e-01  2.671547e+00  -2.532721e+00  -9.651555e-01  1.711519e+00  -1.255793e+00  1.957045e+00  2.332298e+00  -2.415621e+00  -3.704618e-01  -6.141340e-01  7.692443e-01  1.827447e+00  2.767910e+00  4.496577e-01  1.593881e+00  2.124753e+00  1.060109e+00  4.230431e+00  -1.930939e+00  1.637408e+00  -3.094868e+00  -1.445749e-01  -5.956391e-01  -1.355724e+00  2.031112e+00  3.196302e-01  -3.959908e-01  -9.602556e-01  7.954834e-01  -1.786083e+00  2.342211e+00  -8.434193e-01  -1.089947e+00  -8.173978e-01  5.645540e-01  2.111114e+00  -1.419228e+00  2.543886e+00  -8.208261e-01  1.264084e+00  -1.752722e-01  5.872319e-01  6.234912e-01  -9.273580e-01  2.175569e+00  -2.442647e+00  -1.604148e+00  -1.937812e+00  -1.420411e+00  1.112128e+00  1.889335e+00  5.571245e-01  -2.712797e+00  -4.056256e+00  -4.079340e-02  -5.589125e-01  -1.537632e+00  -6.426718e-01  1.927790e+00  4.126186e-01  -1.165383e+00  1.725523e+00  4.662486e+00  4.211885e-01  -3.428850e+00  -2.355534e+00  -1.380886e+00  -8.468138e-01  1.897740e+00  -2.476528e+00  -6.102988e-01  1.625832e+00  -1.431063e+00  2.800979e+00  -1.962388e-01  -2.015834e-01  1.066105e+00  6.699380e-01  -2.709220e+00  -2.153096e+00  -3.826520e-01  -5.788612e-01  1.014079e+00  4.158192e-01  1.269438e+00  1.846950e+00  1.824760e+00  -1.491578e+00  1.826805e+00  -1.208418e+00  2.019932e-01  1.841981e+00  1.761722e-01  7.256410e-01  -1.934925e-01  2.443029e-01  -1.968322e-01  -2.060151e+00  -4.047201e+00  1.267675e+00  1.071811e+00  -3.470174e-01  2.285152e-01  2.280187e+00  -1.248808e+00  6.029394e-01  -2.884654e-01  -4.551383e-01  -2.629709e+00  2.346850e+00  5.975133e-01  2.279415e+00  3.424043e-01  2.107767e+00  1.953983e+00  1.409638e+00  2.527207e-01  -1.079280e+00  -7.274679e-01  1.361990e+00  -1.056325e+00  5.944167e-01  1.190339e+00  9.891129e-02  -1.815368e+00  3.905509e+00  -4.098531e-01  -1.535559e+00  -1.119048e+00  -3.491612e-01  7.674831e-01  1.520508e+00  -2.946213e-01  1.213024e-01  1.034291e+00  -8.304706e-01  -1.102010e+00  -1.134429e+00  1.517884e+00  5.846864e-02  -9.641023e-01  1.399091e+00  -5.717461e-01  1.822457e+00  3.265415e+00  -8.993132e-02  3.177093e-01  1.695864e-01  2.865975e-01  -1.026037e+00  -2.922388e-01  -1.689474e+00  1.323211e+00  2.526634e+00  8.710923e-01  -8.915311e-01  2.774020e+00  -8.374516e-01  -5.511822e-01  -8.791774e-01  -1.660566e+00  -1.835608e+00  -3.713214e-01  2.915542e+00  2.363021e-01  -6.408336e-01  3.354801e-01  1.754020e+00  4.590690e-01  1.104797e+00  9.395238e-01  -1.430370e+00  2.406622e+00  -2.212484e+00  -2.022709e+00  -2.038164e+00  2.393306e-01  3.373773e+00  8.128754e-01  -1.253870e+00  -2.105991e+00  2.876900e-01  1.015459e+00  -1.394298e+00  -3.859971e-01  -8.571259e-01  3.140010e+00  4.381228e-01  2.203388e-01  4.003821e-01  -1.924668e+00  -6.697429e-01  -5.090229e-01  2.960112e-02  -3.271185e+00  -1.397279e+00  2.563390e+00  2.405639e-01  -1.143268e+00  1.547818e+00  -1.327618e+00  2.292682e-01  5.902888e-01  1.491187e+00  9.716955e-01  6.469131e-02  -1.277738e+00  1.713050e+00  2.301052e+00  -1.218975e+00  1.348240e+00  2.969174e-01  2.995830e+00  -1.289703e+00  2.421637e+00  -1.018447e+00  9.245069e-01  -3.081764e+00  3.983994e-01  1.494879e+00  -6.845242e-01  -3.408304e-02  1.209700e-01  1.263345e-01  3.558382e-01  -1.145301e+00  3.058461e-01  -1.356174e+00  5.116812e-01  2.771495e-01  6.401591e-01  -1.562742e-01  -2.617487e+00  4.831143e-01  1.217265e+00  -4.057545e-01  2.571001e-01  7.937774e-01  9.362477e-03  -3.358520e-01  1.955342e+00  -3.122122e-01  -9.295761e-01  -2.645854e-01  -2.218360e-01  -1.697484e+00  -2.538515e+00  -1.933076e+00  8.185333e-01  2.035132e-01  2.896011e+00  2.785334e+00  3.859055e-01  6.887404e-01  1.837316e+00  -3.790430e+00  -2.442318e+00  -2.167493e+00  9.092231e-01  5.749758e-01  1.697534e+00  1.026958e+00  -1.321843e+00  -8.060231e-01  -1.434421e+00  3.829584e-01  -8.116242e-01  -2.233094e+00  -1.863684e+00  1.938047e-01  -1.056936e+00  9.224107e-02  1.114051e+00  1.315046e+00  5.626146e-01  2.216125e+00  3.111585e-01  -2.314163e-01  -1.192017e+00  -3.220889e+00  -1.706282e+00  2.170243e-01  -7.779856e-02  -1.674541e+00  1.954540e+00  -1.920679e+00  -1.674447e+00  -1.537464e+00  -6.504997e-01  -1.996273e+00  1.770717e+00  1.663707e+00  -9.531223e-01  -1.646442e+00  3.141170e-01  3.176805e+00  1.121555e-05  -1.056554e+00  2.236690e+00  3.452280e+00  -5.535470e-02  -6.421466e-01  -6.143821e-01  -2.601620e+00  -1.827924e+00  2.887795e+00  -1.743568e+00  -2.087722e-01  1.144245e-01  8.124606e-01  -2.457414e+00  1.295728e+00  2.108430e+00  -7.185361e-01  7.961651e-01  2.063664e+00  2.248270e+00  1.697836e-01  -1.307342e+00  7.819701e-01  -2.812724e-01  -4.282589e-01  -4.518323e-01  2.280445e+00  1.660625e+00  1.146179e+00  -1.517840e-01  -1.301762e+00  -4.188714e+00  -3.680984e-01  -4.197652e-01  -9.864854e-01  -1.584368e+00  -1.229478e+00  -1.477396e+00  -4.099877e-01  1.612835e+00  -2.322851e+00  3.444269e+00  1.846938e+00  2.442895e+00  -2.175215e-01  1.607103e+00  -1.317097e+00  1.271288e+00  -1.830746e+00  7.414625e-01  2.079189e-02  -1.874824e+00  -6.637120e-01  3.212895e+00  -2.194374e+00  -9.732919e-01  -1.839397e+00  -3.244869e-01  -9.809520e-01  -9.751855e-01  -2.212647e-01  1.683083e+00  9.372119e-01  -2.533670e+00  2.016350e+00  -3.543795e-01  4.291148e-01  9.677326e-01  -3.790548e-01  -1.568526e-01  2.257749e-01  -1.628221e+00  -1.528817e+00  -1.860993e+00  3.403683e+00  -2.203726e+00  -3.717677e-01  -1.152349e+00  -3.926655e-02  2.139243e+00  7.627105e-01  2.048916e+00  1.138200e+00  6.513235e-01  7.588736e-01  8.912282e-02  -2.955953e+00  9.913481e-01  -1.852499e+00  -1.320738e+00  -9.666327e-01  8.594505e-01  -2.125336e+00  -1.951560e+00  1.231212e+00  -5.937981e-01  3.893185e-01  8.203764e-02  -2.084433e+00  -4.549390e+00  -9.465454e-01  -2.439251e+00  -1.794260e+00  -5.116208e-01  -5.470566e+00  2.858362e+00  -1.545221e+00  7.738543e-01  -8.714721e-01  -1.898057e-01  1.212507e+00  5.061070e-01  -4.978488e-01  2.744234e-02  1.590448e+00  7.602831e-02  -5.446411e-02  -3.781477e+00  1.324111e+00  3.535192e-01  -6.562077e-02  1.402118e+00  -1.214564e+00  3.480172e-01  -2.234083e+00  6.885529e-01  -3.535969e-01  1.211177e+00  -5.059559e-01  -1.020434e+00  2.034922e-01  -1.336586e+00  1.607455e+00  1.077658e+00  1.187474e+00  1.422104e+00  6.265686e-01  -9.597191e-01  -2.178068e-02  1.634099e+00  4.672966e+00  9.207581e-01  1.037961e+00  1.473097e+00  5.803143e-02  -6.635197e-01  -1.345816e-01  1.762965e-01  -1.916742e+00  -3.094795e+00  -6.737553e-01  3.552346e+00  2.049281e+00  7.530960e-01  6.468371e-02  -1.660815e+00  3.706053e+00  7.362016e-01  -5.689680e-01  3.035979e-02  -3.099431e+00  -6.758770e-02  3.652407e-01  -2.021587e+00  -1.047991e+00  2.197470e+00  3.655082e+00  2.364090e+00  3.179004e-01  -1.292110e+00  1.037102e+00  -1.806241e-01  -1.569654e+00  -1.635878e+00  1.682337e+00  -5.860934e-01  9.006389e-01  3.307430e-01  -2.474425e-01  7.462601e-02  -1.091744e+00  -1.979922e-01  -1.101732e+00  4.702171e-01  1.478206e+00  3.268333e+00  -3.095545e+00  -1.241425e+00  4.426199e-01  7.010809e-02  -1.502595e+00  1.284236e+00  -4.401752e-01  -1.011681e+00  -6.354626e-01  3.849359e+00  -3.628494e-01  -9.560593e-01  -3.258966e+00  -3.313303e-01  -2.933178e+00  -1.583957e+00  -1.606766e+00  8.646675e-01  3.350739e-01  -2.631216e-02  -2.491372e+00  5.248808e-01  -3.079207e-01  -8.976627e-02  2.593507e-01  2.781016e+00  -2.849468e+00  1.400804e+00  3.952842e-01  -2.223827e-01  -7.185761e-01  -1.606390e+00  2.184631e+00  -8.373312e-01  5.863431e+00  -2.098254e+00  -1.218432e+00  -9.071403e-01  3.190442e+00  2.769234e+00  2.068557e+00  2.747738e+00  2.791990e-01  1.348358e+00  -3.973807e+00  1.254763e+00  3.173388e+00  -1.683112e+00  7.618344e-01  -2.331606e+00  2.177383e+00  -9.015630e-01  -7.796355e-01  1.265313e-01  -4.847753e-01  1.867523e+00  -3.733319e+00  8.368100e-01  -1.158220e+00  1.862969e+00  5.692290e-01  -3.147912e-01  5.828758e-01  -6.323263e-01  3.375686e-01  -5.785154e-01  1.330397e+00  -1.765297e+00  -1.635513e-02  -2.583939e-01  -2.953716e-01  1.008252e-01  1.353779e+00  2.680092e-01  -8.890090e-01  2.020679e-02  -6.701123e-01  -4.592925e+00  -3.254651e-01  -1.951362e+00  -1.522500e-01  3.188423e+00  -2.872644e+00  -5.154850e+00  -2.524260e+00  -8.344492e-01  -6.465579e-01  -3.658417e+00  7.601119e-01  -2.728272e-02  2.890904e+00  2.089203e+00  7.511557e-01  -2.287529e+00  -7.597452e-01  2.212396e-01  3.271492e+00  1.354010e+00  -2.324686e+00  5.858322e-01  -2.669232e+00  6.051710e-01  2.740899e+00  6.952015e-01  -3.753256e+00  -1.479905e+00  4.138564e-01  -7.961413e-01  -1.988333e+00  -2.763991e+00  -1.011188e+00  1.212799e+00  -2.694908e-01  1.142275e+00  3.513658e+00  1.070827e+00  -1.000306e-01  2.064812e-01  -6.964377e-01  4.376913e-01  4.300195e-01  -1.539722e+00  6.107372e-02  2.814575e-01  4.177452e-01  3.077591e+00  7.038055e-02  -2.272587e+00  -4.507961e-01  6.556926e-01  -1.936949e+00  -1.359457e-02  1.361989e+00  -8.018899e-01  1.402154e+00  -3.160233e-01  -4.141058e-02  -1.448987e+00  1.843475e+00  -1.119964e+00  3.249625e+00  -2.060024e+00  1.084273e+00  1.051894e+00  1.205664e+00  -1.169600e+00  1.222126e+00  7.224708e-02  6.451333e-01  -1.803859e+00  -5.395341e-01  6.967228e-02  1.801802e+00  -2.464672e+00  2.429310e+00  1.703882e-01  -1.738411e-01  2.932783e+00  1.583728e+00  -5.241454e-01  3.827072e+00  2.260193e+00  2.835393e+00  -2.084014e+00  -1.464104e+00  -1.380141e+00  1.064722e+00  1.899536e+00  1.075871e+00  -1.204992e+00  -2.736698e+00  -1.618593e-01  -2.715382e+00  2.132283e+00  -6.103368e-01  5.006529e-02  1.692055e+00  9.096394e-01  -6.352230e-01  -9.874997e-01  -1.997048e+00  6.410452e-02  -2.007801e+00  -1.132988e-01  -2.039647e+00  1.291805e+00  1.748011e+00  9.718729e-01  2.497757e+00  -2.027676e+00  -2.336195e-01  1.981967e-01  1.079462e-02  -1.437484e+00  -2.430722e+00  4.384494e-01  4.341002e-02  2.924222e+00  2.237385e+00  3.501675e-01  3.196182e+00  8.724400e-01  -7.917182e-01  -1.136798e+00  -9.709308e-01  -1.017415e+00  -8.209864e-02  -3.455954e+00  -4.087288e-02  2.213977e+00  1.510683e+00  -3.890807e+00  -1.462678e+00  1.593509e+00  -2.003009e+00  -2.621395e+00  1.616829e+00  4.639264e+00  -8.878457e-01  3.046190e-01  2.804405e+00  1.233571e+00  -8.171089e-01  -2.797574e-01  5.704835e-01  1.375662e+00  3.185824e-01  -1.481837e+00  -4.063110e-01  1.071969e+00  -1.249977e-01  5.147024e-01  -2.824052e+00  1.706154e+00  -2.204765e+00  -1.519714e+00  7.365779e-01  -2.204556e+00  -1.614998e+00  1.855436e+00  1.511355e+00  1.821016e+00  8.325362e-01  1.678496e+00  2.832318e+00  6.545809e-01  -1.893163e+00  1.553329e+00  -2.431378e-01  -8.082011e-01  -2.871055e+00  2.188064e-01  -1.418381e+00  3.224001e+00  9.232303e-01  2.728091e-01  -3.271963e-01  -2.776891e+00  6.022981e-01  1.578966e+00  1.819768e+00  -1.577172e+00  1.195920e+00  -5.124099e-01  2.783600e+00  -2.611369e-01  -2.024504e+00  -2.350363e+00  -3.879942e-01  -1.412925e+00  2.430950e-01  2.565597e-01  2.646007e-01  -6.479338e-01  -1.104222e+00  -2.618041e+00  7.676877e-01  -1.202337e+00  -8.196993e-01  1.881644e+00  1.598340e+00  -2.384557e-01  5.743790e-01  3.103186e-01  1.072997e+00  6.368505e-01  -1.285134e+00  -9.915509e-01  1.500754e+00  -1.134735e+00  1.061557e+00  -4.930488e-01  3.265336e+00  6.364105e-01  5.576686e-01  2.927519e+00  -1.245184e+00  2.849263e+00  -7.256559e-01  -4.197213e-01  -3.627753e-01  -7.228466e-01  6.540704e-01  -3.987912e-01  7.521531e-01  -9.152830e-01  -5.783942e-01  -1.549762e+00  -3.470437e-01  -1.192960e+00  -2.239366e+00  1.163818e+00  -4.111990e-01  4.159124e-01  1.630970e+00  1.338193e+00  7.944753e-01  1.277343e+00  -2.126609e-02  -1.662779e+00  -1.353742e+00  2.001237e+00  -1.532199e+00  3.186184e-01  -1.474626e+00  7.363669e-01  5.066273e-01  1.566386e+00  6.355608e-01  -2.407442e+00  2.229202e-01  2.250598e-01  7.644675e-01  4.141238e-01  -2.065018e-01  -5.047619e-01  1.331457e+00  -3.708173e-01  -1.950128e+00  -2.008544e+00  -1.942731e+00  -9.758075e-01  9.653695e-01  -8.073878e-01  -2.270584e+00  3.812922e-01  8.883132e-01  -3.591987e-01  -1.738683e+00  3.477941e-01  -1.081719e+00  7.458484e-01  1.168880e+00  -2.024229e+00  -7.845242e-01  -3.858296e-01  -1.809479e+00  2.215804e+00  9.169635e-02  4.493999e+00  -2.118078e+00  -4.486746e-01  -3.976229e-01  2.731624e+00  -2.458713e-01  -6.241258e-01  8.324355e-01  7.579224e-02  -4.976327e+00  -1.403487e+00  1.010243e+00  -1.390924e+00  -2.627742e-01  -4.018583e+00  -2.905520e-01  5.165141e-02  -2.975658e+00  2.379085e-01  -2.136840e+00  -3.596619e+00  9.774364e-01  3.790276e+00  2.558751e+00  -4.075727e-01  1.317203e+00  -8.108550e-01  -4.891713e-01  -3.336295e+00  1.979110e-01  9.862199e-01  -2.145159e+00  -9.971511e-01  3.742042e-01  -5.710052e-01  -1.410151e+00  -3.274026e+00  1.024919e+00  -1.193268e+00  -1.785394e+00  -1.162744e+00  1.389286e-01  2.572988e+00  1.049037e+00  5.127995e-01  8.721244e-01  6.169351e-01  -2.216356e+00  -1.098827e+00  -2.082236e-01  1.041038e+00  -4.114121e-01  -9.637237e-01  2.139504e+00  -6.122268e-01  2.969178e+00  1.096596e+00  -1.031748e+00  1.168772e+00  1.428879e+00  -2.660749e+00  -5.522770e-01  2.654624e+00  3.679535e+00  -2.549656e+00  -1.269557e+00  6.224089e-01  1.317545e+00  2.645274e+00  -2.244805e+00  -2.278978e+00  4.032019e-01  -5.576941e-01  3.489836e-01  2.658193e-01  2.288890e+00  2.328703e+00  -2.321575e-01  -1.029317e+00  6.281319e-01  -1.411095e+00  -1.200541e+00  -2.058965e+00  4.108974e-01  7.478143e-01  -1.487694e+00  2.662500e+00  3.152608e+00  7.561844e-02  1.044505e+00  -1.258171e+00  3.580683e-01  -1.998368e+00  1.759286e+00  -2.019810e+00  -1.369458e+00  -1.215207e+00  2.517757e+00  3.134383e-01  5.481189e-01  -1.056920e-01  -8.286234e-01  -1.721436e+00  -1.692072e-01  -2.898642e+00  -5.368407e-01  3.105985e+00  -1.283371e+00  -1.966285e+00  2.730913e-01  1.470294e+00  2.774960e+00  -3.446779e+00  -1.133856e+00  7.794251e-02  2.647490e-01  1.092185e+00  -2.748732e-01  -5.117818e-01  -1.209629e+00  6.554922e-01  3.313164e+00  4.526412e-01  -3.441529e-01  2.980533e+00  -8.397308e-01  -3.943607e-01  -1.468886e-01  -1.712731e+00  1.423402e+00  -3.683624e-01  1.447088e+00  -1.628071e+00  -1.555430e-01  -9.555336e-01  1.355120e+00  6.931221e-01  1.953175e+00  -1.807021e+00  1.352306e-01  4.636272e-02  -9.526626e-01  1.994873e+00  3.136540e-01  -2.286003e+00  -3.694640e-01  1.995452e+00  3.583196e-01  2.075095e+00  -1.325477e+00  -2.523583e+00  -1.480295e+00  -3.455293e-01  5.934622e-02  7.998449e-01  5.807930e-01  1.328071e+00  2.274354e-03  1.829657e-03  -3.418707e-01  -1.439947e-01  1.289443e-01  -3.685865e-01  3.813319e+00  1.580015e+00  1.158529e+00  -1.653052e+00  7.493868e-01  2.005454e+00  8.702348e-01  -1.799353e+00  2.881371e+00  4.136710e-01  5.590271e-01  6.578078e-02  2.313102e+00  -2.450898e+00  -3.089398e+00  -1.162995e+00  4.136988e-01  -5.156328e-01  -3.267456e-01  3.191070e+00  -7.172328e-01  -2.290139e+00  1.437112e+00  2.273513e+00  -1.026243e+00  -1.691664e+00  4.322178e-02  -1.706910e+00  1.971713e+00  3.728281e-01  -2.570965e+00  -2.312807e+00  -1.421975e+00  -2.982744e+00  -2.131918e+00  6.794478e-01  -3.286277e+00  1.236468e+00  -5.353064e-01  2.104068e+00  -1.272539e+00  -7.404296e-01  1.370571e+00  -6.740809e-02  7.106918e-02  1.266747e+00  1.427457e-01  -6.518126e-02  2.467818e+00  -1.153899e+00  1.042387e+00  1.174581e+00  4.025628e-01  8.389569e-01  -1.895898e+00  1.178214e+00  -4.367157e+00  1.918209e+00  -1.306888e-01  2.175975e+00  1.114970e+00  1.860914e-01  1.457462e+00  -1.166936e+00  1.233861e+00  3.198031e-01  7.531924e-01  1.969480e+00  2.325841e-01  -1.173139e+00  -2.688285e-01  2.033873e+00  2.306095e+00  -1.934639e-01  -4.927422e-02  2.184563e+00  1.127322e+00  -2.190404e+00  1.047446e+00  2.270360e+00  -2.517318e+00  -4.147586e-02  6.549093e-03  4.947719e+00  -8.120056e-01  8.709145e-01  7.424642e-01  -2.248361e+00  1.137191e+00  1.655821e+00  -2.161925e+00  1.905092e-01  -2.728522e+00  5.864317e-01  -7.290991e-01  -2.024946e-01  -2.203455e+00  5.237964e-01  2.308057e+00  2.681452e+00  3.341598e-01  -2.200944e-01  -1.154373e+00  1.117345e+00  -3.287125e+00  -2.296086e+00  9.634361e-01  -1.016810e+00  8.135270e-01  -1.107830e+00  -1.815756e+00  -6.885633e-01  -2.495903e+00  7.631332e-01  -1.842988e+00  9.262859e-01  2.761832e+00  3.501436e+00  -6.537673e-01  -1.121326e+00  1.585661e+00  -8.967273e-01  -1.836880e-01  1.500430e+00  5.865714e-01  2.382381e+00  1.753172e+00  7.070963e-01  -1.858917e+00  -1.206910e+00  -1.439277e+00  -1.515632e+00  -3.291852e+00  -1.058783e+00  -1.931395e-01  1.993407e-01  1.583784e+00  3.588024e-01  -3.352568e+00  2.540444e+00  -1.039949e+00  1.192788e+00  1.299695e+00  5.110326e-01  -3.784430e+00  3.047005e-02  7.961898e-01  2.574381e-01  -9.572366e-02  -1.679497e+00  -1.464489e+00  -4.506796e-01  -6.568472e-01  -6.737588e-01  4.991525e-01  -3.052085e+00  4.864110e-01  2.548696e-01  -1.039670e+00  2.732436e+00  6.162716e-01  -3.561256e+00  -5.901225e-01  5.562010e-01  -2.925133e-01  4.176575e-01  -1.862965e+00  1.976231e+00  -2.407126e+00  -2.987686e+00  -6.932368e-02  -6.884260e-01  2.580118e+00  1.659010e+00  -1.910597e-01  2.650317e+00  2.470696e+00  1.677031e+00  2.599318e-01  7.491935e-01  1.092034e+00  -9.980670e-01  -1.408149e+00  2.189365e+00  -3.472225e+00  2.319455e+00  -1.065472e+00  1.985635e+00  -7.425127e-01  1.203548e+00  1.702770e+00  -1.748546e+00  1.388454e+00  2.065484e+00  9.181681e-01  2.225106e+00  -1.248676e+00  -1.026806e+00  -3.214159e-01  1.496095e+00  -1.543127e+00  -2.232564e+00  -8.123653e-01  3.229303e-01  1.595891e+00  -6.347132e-01  2.521053e+00  1.150173e+00  1.479200e-01  -1.246133e+00  -6.660459e-01  7.701197e-01  2.012503e+00  -7.058159e-03  2.006429e+00  6.345829e-01  -8.481801e-01  7.259794e-01  -7.357427e-01  1.520690e+00  -1.005433e+00  1.600382e+00  1.149447e+00  4.758219e-01  -1.292901e+00  1.371215e+00  1.482870e+00  1.993624e+00  -2.621990e+00  2.901582e-01  -1.680085e+00  9.282982e-01  -1.378227e+00  1.614760e-01  -2.655380e-01  -1.767743e+00  -3.820384e-01  -1.333741e+00  -4.932484e-01  -5.064114e+00  -6.534463e-01  -1.843559e+00  3.805149e-02  7.432527e-01  2.303907e+00  2.258097e+00  1.623206e+00  -7.430509e-01  1.006890e+00  -7.643952e-01  2.005081e-01  -1.272715e+00  1.670473e+00  1.172809e+00  2.209915e-02  -9.007412e-01  -2.158092e+00  -8.169097e-01  -2.797352e-01  1.037196e+00  -1.848952e+00  -5.850218e-01  -1.890567e+00  1.955230e+00  2.646749e-01  1.499423e-01  -1.969735e+00  1.588587e+00  -2.138459e+00  2.459528e-01  5.507454e+00  2.723448e-01  -9.247463e-01  -1.309797e+00  -6.820197e-01  9.652324e-01  1.669443e+00  1.311952e+00  -8.900281e-01  -6.761743e-01  -1.605769e+00  2.816430e+00  -1.414357e+00  -1.292954e+00  -2.930484e+00  5.725027e-03  1.667156e-01  -1.592929e+00  -1.149100e+00  -1.239685e+00  2.777989e+00  2.529576e-01  -7.651504e-01  1.686871e+00  1.468259e-01  -3.695632e-01  -1.476046e+00  -1.698286e+00  -5.390996e-01  1.356728e+00  -1.633659e+00  5.753407e-01  1.634347e+00  1.042307e+00  -3.854561e-02  -1.673301e+00  2.388076e+00  -4.216096e+00  -3.139517e+00  -1.545547e-01  1.089599e+00  -1.575907e+00  9.488252e-01  1.659603e+00  -1.553466e+00  4.759832e-01  1.907721e+00  1.037855e+00  -1.558728e+00  1.397353e+00  -1.388247e+00  -1.699424e+00  -3.064331e-01  2.310944e+00  8.201947e-01  2.479308e+00  -6.434988e-01  -3.018260e+00  1.468015e+00  3.461719e+00  -8.011534e-01  -1.329588e+00  -3.861418e+00  2.078166e+00  1.059082e+00  -1.108717e+00  3.488230e-01  -3.267652e+00  1.530040e-01  -1.429509e-01  3.629555e-01  -2.237977e+00  -4.005443e+00  6.072891e-01  1.551559e+00  -3.118319e+00  7.554454e-01  5.266645e-01  2.130806e-01  -8.678492e-01  1.601522e-01  -1.442882e-01  7.643224e-02  3.284675e-02  9.027811e-01  6.147172e-01  -7.873347e-01  -3.256663e-01  2.496280e+00  -6.150746e-01  3.901360e-01  1.067876e+00  3.014155e+00  8.654152e-01  -1.240209e+00  2.662689e+00  -1.779024e-01  -7.188192e-01  8.120368e-01  -5.733885e-01  1.880497e+00  2.863635e-01  -6.641307e-01  9.315294e-01  -2.101117e+00  -1.131562e+00  1.124492e+00  2.744716e+00  7.285578e-01  -6.246191e-01  -9.120828e-02  -6.818221e-01  2.805032e-01  2.919289e+00  -1.853455e+00  2.029390e-01  -8.853699e-01  6.824231e-01  -6.040944e-01  -3.283775e-01  -1.228192e+00  1.290731e+00  -4.739644e+00  -9.453332e-01  -6.907120e-01  -1.119619e+00  -1.798100e-01  3.482345e-01  1.098105e+00  2.051012e+00  8.573712e-01  3.561623e+00  -1.019424e+00  -3.057640e+00  6.580072e-01  -6.893674e-02  -7.556412e-01  -2.433517e+00  -1.870607e-01  -4.462900e-01  3.950824e-03  3.179830e+00  1.942851e-03  2.453294e-01  1.099284e+00  2.001580e+00  3.501445e-01  2.420753e+00  -6.713962e-01  -2.394651e+00  2.225785e+00  -8.283673e-02  6.142156e-01  -1.626409e-01  4.926001e-01  1.417997e+00  1.984831e+00  1.126679e+00  -1.062828e+00  -2.812268e-01  7.520013e-01  -4.146059e+00  -2.421028e+00  3.607686e-01  -2.083938e+00  2.438228e+00  